1698 64
7ed6a3c6a932bfec6d6c414ff0339265b0bf58b7 0.21807553 -0.24724 -0.050255388 -0.078705676 0.11543272 -0.7653124 0.18380596 0.1689317 0.04244631 -0.2921193 0.38738737 0.03198234 -0.8403451 -0.15916008 0.053313524 0.04793145 -0.10608229 -0.11059762 -0.21707758 0.22865547 0.46552938 0.3922416 -0.058654003 -0.18907106 -0.09840907 -0.41782576 -0.33797717 -0.006472942 -0.092980504 -0.06102995 0.06533461 0.080904774 0.093097545 -0.044966776 0.4408716 -0.3487505 0.06707556 -0.063849196 0.0065187644 -0.11317814 0.054777835 0.40855396 -0.57133895 0.30484033 0.42384252 0.22763716 0.43348727 0.18020459 0.13836958 -0.29413527 0.23316312 -0.21942283 -0.044472083 0.32105744 0.07059245 0.43436277 0.21605565 0.13446519 -0.24746718 0.088983476 -0.18877822 0.23701419 0.2114727 0.17730679
61f4c6bf0a04eec87d62ddb974fced2767546968 -0.005005982 -0.15821682 0.24390557 0.35217145 0.15724258 -0.76590073 -0.10573741 -0.064008944 -0.26604304 0.01855043 0.4228779 0.056427192 -0.2543254 -0.41065112 -0.090374306 -0.027700411 -0.26472872 0.15880765 -0.12683384 0.03264937 0.1745036 0.62386763 -0.34679282 -0.12666276 -0.24163817 -0.32193127 -0.2520406 -0.08900978 0.14947872 -0.26019174 0.25471097 -0.02100793 -0.14210613 -0.06147468 -0.33906093 0.1625192 -0.026693076 -0.22809334 0.13180551 0.1254837 0.42581132 -0.16214243 -0.42972147 0.06305062 0.29966438 -0.08183557 0.19609393 0.28898993 0.26516378 0.42404252 0.21388659 0.28820905 0.0963862 0.6224854 -0.11020111 0.24177004 -0.069486745 -0.12488829 -0.091379136 -0.15177695 0.16432773 0.21424927 0.148027 -0.033386607
03e4c9e8593fd47ca6df56bb56b3d5993da24ab4 0.068112634 -0.11721391 -0.07967539 -0.07689995 0.3026291 -0.62721014 0.10730747 -0.007606869 -0.006965539 -0.2566568 0.7935752 0.12356915 -0.8337507 -0.57720524 0.14972416 -0.14390625 -0.42652744 0.060269915 0.08728718 -0.013394553 0.44216397 0.106092244 -0.30146655 -0.075603016 -0.17946218 -0.014303446 -0.031440575 -0.15470241 -0.046718147 -0.30178317 0.28807807 0.056853186 -0.18281284 -0.3983909 -0.019154819 -0.1933564 0.07356075 0.06627829 0.18580931 0.047213618 0.35165069 0.18447773 -0.54744935 0.1064643 0.023611244 0.40375954 0.1128382 0.1671445 0.07493738 -0.15051787 0.3031282 -0.12232393 0.07622928 0.13111022 -0.14117429 0.1478003 0.13505028 -0.14935692 -0.0012216582 0.0039611664 -0.28704888 0.19656047 0.21404034 -0.1293163
8e1c93fa4ca85e4140c5e4e251e4b225a38ac291 0.19713907 -0.5393071 -0.014202237 -0.2793272 0.39166903 -0.76648355 -0.24967733 0.14713955 0.32630762 0.029486688 0.08476147 -0.06019889 -0.4783282 -0.41676062 0.11122951 -0.16092992 -0.3634107 0.20771907 -0.33303156 0.23318595 0.5055456 0.40916258 0.03688872 0.27636725 -0.1569301 -0.006357036 0.09531551 -0.010397783 0.040135354 -0.05820999 0.1975634 0.098923974 0.28709906 -0.22796638 -0.0002397396 -0.200421 -0.057825312 0.071212456 -0.0063547255 -0.11415318 0.19504344 0.45781204 -0.61697185 0.07165916 0.33276302 -0.00017888325 0.15035702 -0.22377132 0.10432581 0.32737815 -0.14631398 0.109275244 0.17519228 0.34235406 0.057754632 0.329363 0.30552363 0.23764083 -0.4004013 -0.24735932 -0.16122217 -0.0031532503 0.051226422 -0.0036275897
0f659fd4526c09e8a259d1fdfbf91b05dca1d118 0.12882186 -0.45070142 -0.24912249 -0.035563573 -0.029883591 -0.4451315 0.16984549 -0.3656864 0.3169354 -0.18420964 0.19901145 0.29333976 -0.54256207 0.25351176 0.19898991 -0.59699136 0.4700307 0.1653202 -0.09931987 -0.0574417 0.45731398 0.3260846 -0.610814 0.2560439 0.14544071 -0.7312599 -0.45260444 -0.06429325 -0.21805875 -0.14321269 -0.08966195 -0.31046706 0.44440833 -0.43587813 -0.07631481 -0.51457757 0.14162256 0.036122628 -0.1508012 0.12976637 0.5279776 -0.23869747 -0.10241584 0.23350446 0.124171585 -0.01631767 0.18671122 0.3301967 0.10788506 -0.05669664 0.014908755 0.25264457 -0.017177995 0.1167643 0.21804377 0.42293403 0.29310545 0.23110057 0.65217894 -0.6766561 -0.1420713 -0.08486302 0.45567217 -0.040295113
5464994439fcefc26ae5b7152b744d22e1fc6203 0.029028159 0.106551714 -0.39197534 -0.07950947 0.72067195 0.32841876 0.1308894 0.042540245 -0.35983166 0.51385415 -0.34510756 -0.054767195 -0.004879106 -0.60742426 0.47900784 0.54480785 -0.21038364 0.7453606 -0.13255946 -0.42960048 0.5022615 0.4199725 -0.09311424 0.0591536 -0.15476109 -0.2681282 -0.05804824 -0.08631932 0.2572339 -0.1981513 -0.011510281 -0.1283427 -0.094135925 -0.29072502 0.2638732 -0.23489407 0.37625846 -0.5560803 -0.011089576 -0.1461613 0.1176733 0.18127936 0.061621822 0.4344263 0.5560558 -0.24838945 0.16051191 0.117724344 0.0005947459 0.035081074 0.2999642 0.6436484 -0.11288728 0.016726103 -0.12827332 0.14952914 0.107150525 0.19582076 -0.034408383 0.14326921 -0.69356537 0.047281794 0.34550515 -0.4926353
d96124ed3ddcd941f821bd2485222940df39f29e 0.28182465 -0.3174677 -0.3294205 -0.35918728 0.101889014 -0.90348065 0.15610136 0.02616482 -0.014361165 -0.32609078 0.3656252 -0.16943447 -0.4326722 -0.40844944 0.06464862 -0.19856432 -0.6117144 -0.07171882 -0.27567548 0.24012096 0.5078936 0.27790084 -0.16337632 0.07339674 -0.12123463 -0.06627713 -0.47357783 0.13414662 -0.19632055 -0.17893651 0.0208951 -0.09456596 0.21304251 -0.17388536 -0.15787613 -0.09894533 0.038258467 0.07008903 0.36042175 0.29847556 0.2988149 0.375583 -0.5371457 0.038425878 0.21941221 0.05482397 0.24782163 -0.007849049 0.24752018 0.09476319 0.007820756 0.20133413 -0.11172213 0.17353897 0.46509188 0.26423723 -0.18000898 -0.1638315 -0.036753256 -0.28568327 -0.37006766 0.22729543 0.045250386 0.5136871
5f2b9391e30c46c8ad7d7372eacd036650172ca6 0.07589543 0.027464269 -0.16203013 0.08839521 0.52212656 -0.15342067 -0.3106527 -0.3764497 -0.4848127 0.062529795 -0.6019966 -0.3303688 -0.49039492 -0.27386928 0.10986154 0.22955485 0.2010333 -0.02240987 0.49818808 -0.73160535 0.3644543 0.45359248 -0.48853672 -0.42187124 0.08397664 -0.3773397 -0.17224108 0.04870413 0.16931403 0.17822635 0.28494164 -0.44214386 -0.0033702082 -0.57662356 0.07239479 0.07228424 -0.035295006 -0.17694001 -0.60569745 -0.044794373 0.33803967 0.15398557 -0.04566534 0.45316052 0.43120155 -0.012865614 0.17436653 -0.5050884 0.063202694 -0.34557766 -0.16266839 0.39909518 -0.3462267 -0.19474246 -0.18646306 -0.29649547 -0.12410951 -0.47756118 -0.1833658 0.08524261 -0.1557193 -0.36774734 0.32801202 0.35542843
67fa76ff0a7544dc59ad1ee76f01bc42f7856b42 0.17948861 -0.37937543 -0.5762639 -0.32102147 0.37136337 0.42526102 0.2291161 0.3401294 -0.7119129 0.27745047 -0.3082073 0.01152412 -0.30587956 -0.3313207 0.11875978 0.3048879 -0.50612843 0.6547758 -0.17890422 -0.12229551 0.6397341 -0.10574083 -0.27411962 -0.14078116 0.15080921 0.22344352 0.17374656 -0.15451892 0.25889596 -0.059684556 -0.38877448 0.105777524 0.08933196 -0.28936106 -0.09456715 -0.31557438 -0.046633992 -0.8012664 -0.20113239 -0.10314632 0.15253626 0.37615615 0.026135998 0.5034114 0.37941995 -0.28573403 0.27130103 -0.16643916 0.12437432 -0.0031694146 -0.03982703 0.761505 0.09916559 0.28834486 -0.169215 0.26758215 0.491995 -0.37283346 0.07036918 -0.44833955 -0.5112728 0.15761027 0.4406211 -0.21030504
09fa2e8be0b276d1730929a582319700d7cf6453 0.34776297 -0.25449792 -0.12531108 -0.042830333 0.2607036 -0.6391837 0.0072537577 -0.1110917 -0.08028342 -0.3676392 0.47443944 0.047705326 -0.6907978 -0.5060358 0.16457722 -0.16691168 -0.43759114 -0.23554994 -0.17027418 0.0093193585 0.8542737 0.27786645 0.04486054 -0.16075793 -0.10734161 -0.09349117 -0.16862454 0.05818815 -0.30278954 -0.055709478 0.09150887 0.19969296 0.1893473 -0.22160159 -0.11310918 -0.11607649 0.1882901 -0.039276868 0.4240893 -0.17462319 0.12299769 0.2477772 -0.5981503 -0.10456125 0.4748026 0.23129898 0.21239857 0.17241718 0.15110534 0.018547175 -0.02239147 0.15755986 -0.019235248 0.19970073 0.021093983 0.27973568 -0.006841116 0.20631824 -0.32081184 0.15439619 -0.26259953 0.48783362 0.33825445 0.27480456
212b551b8ca2aa802f9e5abacdbf0141e86d5365 0.3211332 -0.17549795 -0.1353457 -0.13836451 0.18038358 -0.87222785 0.5994712 0.08618671 0.06952243 -0.15858555 0.4849006 0.017658573 -0.5438352 -0.2683256 0.18617438 0.013533841 -0.56161577 -0.035642203 -0.14485015 -0.21084984 0.37540364 0.07899918 -0.16083756 0.017318638 -0.283352 -0.116787456 -0.29257873 -0.08889143 -0.17826983 -0.2710071 0.3432681 -0.04918561 0.1579077 -0.31279638 -0.09979122 -0.37956944 0.2264274 -0.169602 0.08795328 0.07341325 0.3005355 0.23552246 -0.74074036 0.021486904 0.08321649 0.03130256 0.18222491 0.013964697 0.24849278 -0.24531846 0.1402969 -0.104256526 -0.03713323 0.19164573 0.106704324 0.30783996 0.41387194 0.21096599 -0.40933135 -0.21677823 0.025594054 0.0896984 0.33469272 0.14634179
24659466168e31463b0c67e6b7b17cb314aa6559 0.30034027 -0.22923027 -0.21785706 0.040809844 -0.052027486 -0.7023448 0.06571682 -0.2664374 -0.13115636 -0.21510999 0.5873705 -0.23999217 -0.827345 -0.21777554 0.21538548 0.19866423 0.017680764 0.22208682 -0.088465855 0.15527241 0.7485529 0.065250784 -0.08762281 0.048098467 -0.056411855 0.097622015 0.21652007 -0.05118723 -0.100811556 -0.31014636 0.16078834 0.07520381 0.18351297 -0.29108235 -0.2434598 -0.19181786 0.2911307 0.0021550618 0.124482274 -0.17256217 0.36370745 0.23653112 -0.62506074 -0.10915266 0.020718463 -0.1335442 -0.0062663993 0.11835925 0.46285287 -0.016609589 0.014051732 0.19571191 0.10531923 0.5242641 0.17878325 0.37602475 -0.11655054 -0.0022590796 -0.20209886 0.22401896 -0.2725517 0.36404637 0.42425433 0.36887053
be7ec0125fa8f9554105d4ba66548b11451c2cbd 0.28280187 -0.36756158 -0.07903774 -0.12298236 0.59108156 -0.8261961 0.36956173 -0.29866713 0.002230901 -0.43378198 0.34648266 -0.26139656 -0.62410253 -0.35172123 0.1175349 -0.13258822 -0.32459015 0.054375783 -0.08173917 0.3108582 0.55415297 0.39815715 0.042162903 0.21369919 -0.009645366 0.21390319 -0.3659067 0.17340484 -0.2066938 -0.2065996 0.15821536 0.06152917 0.43392867 -0.15055043 0.3958615 -0.29230443 0.1335063 0.20086862 0.25185055 0.04436642 0.2953298 0.14382014 -0.4618631 0.05238009 0.25222662 0.083650365 0.14134677 -0.012894809 0.09417491 -0.12707284 -0.036342002 -0.06330657 0.10469382 0.41545483 0.45993015 0.40446728 -0.08279089 0.16267528 -0.017901005 0.029692648 -0.2640282 0.29886654 0.28611875 0.30949014
b7ace142457f9a887520c2fae9d32deca0d1ffd0 0.004918455 -0.52496254 -0.23196913 -0.092202686 0.00429344 -0.88983226 -0.033901345 -0.16929613 0.3290678 -0.2958849 0.4634307 0.14742188 -0.6948217 -0.23657057 0.2207787 -0.11082856 -0.33376974 -0.13520999 -0.1642554 0.20465738 0.53401375 0.20340735 -0.27502048 0.33020824 -0.19603288 -0.2005588 -0.28147084 0.10619944 -0.30326152 -0.11994528 0.09933559 0.41491562 0.23359656 -0.37689373 -0.21029341 0.37074593 0.124356374 0.25517493 0.01795014 0.26387224 0.2860155 0.22374326 -0.58392626 0.43985608 0.067612104 -0.14453791 0.07492432 -0.188777 -0.16802758 -0.18490386 -0.012127271 0.23656279 0.19747777 0.07370406 0.081325814 0.06169518 0.06912159 -0.15390585 0.00019863975 0.07293024 -0.5068489 0.31487083 0.2771016 0.03500037
0921a7bde167696c7b64b6003ce018b09aa25648 -0.32357368 -0.121399574 -0.115153305 -0.079076216 -0.5607192 -0.20809816 0.049633715 -0.045235522 -0.016065504 -0.07464292 -0.091597036 0.25727513 -0.46506977 0.020346913 0.11042589 -0.38338286 0.13589694 0.5198478 -0.05173277 0.07544638 0.5977681 0.49599084 -0.47672865 -0.22080338 -0.3360212 0.12401646 -0.75107116 -0.08591856 0.066836655 -0.2338593 0.035525903 0.31584525 0.2560471 -0.6670866 -0.07738099 -0.45066753 0.18970133 0.24754903 -0.21858034 -0.083513044 0.638586 -0.20881626 -0.41856745 -0.053625572 0.052208986 0.019447593 0.045741342 -0.19524644 0.0585567 0.34254465 0.40563986 -0.09443786 -0.07052857 -0.010229087 0.0842349 -0.07500437 0.26143336 0.04946157 0.62813085 -0.7046556 -0.32011136 0.12150661 0.08042249 -0.036685504
0d4124fd061dda13494d24518c1cb8c8ac884874 -0.2608172 -0.29288808 -0.1598674 0.09245009 -0.27235118 -0.30614272 -0.021352356 -0.017952247 0.089471206 -0.19875613 0.32394016 0.26576152 -0.1835386 0.07247514 0.20141985 -0.5103282 0.20549513 0.5147396 0.06460012 0.2251761 0.56180555 0.5072988 -0.89747775 0.05345641 -0.37072122 -0.36856794 -0.20887452 0.4182613 0.39764073 -0.0863224 0.15230507 0.25180957 0.40839222 -0.26093385 0.07403432 -0.46508104 0.3267014 0.27230886 -0.106999405 -0.25198713 0.44724402 -0.09778338 -0.20367305 -0.009120166 0.22661829 -0.28767285 -0.1232934 0.25364995 0.13942683 -0.11535424 -0.20036802 0.23285456 -0.2673069 0.014470639 0.25166795 0.37487707 0.60019517 0.22097296 0.122131266 -0.5586817 -0.07415149 0.07731233 0.42372745 -0.37319222
9f241a0e43367178e4b9e0a414d1a34a817dd33e 0.2499495 -0.029736431 -0.11961253 0.1340145 0.3906198 -0.6136805 0.3169137 0.1829066 0.038922455 -0.09184461 0.71727943 0.22268334 -0.7236655 -0.029682318 0.08094704 0.21606527 -0.56684995 -0.13071103 -0.0074688513 -0.020014634 0.6378754 0.2935586 -0.3489919 0.2857607 -0.08828265 0.04707306 -0.123373225 0.18282615 -0.4194614 -0.2178 -0.010044886 0.22903022 -0.2214265 -0.37689584 0.036481995 -0.1516881 -0.14162116 0.010969426 0.07801078 -0.107202955 0.17044033 0.0737881 -0.42078754 0.2452578 0.460168 0.099418975 0.096927814 0.043647055 0.2582446 0.24632527 0.40690774 0.19527192 0.06965171 -0.07061739 -0.14151946 0.43335798 0.18247184 0.05400526 -0.19991909 0.22861025 -0.30598927 0.19063646 0.11350088 0.20059586
1c2d94b98677eb47b96338c7dba27a69b580950a 0.2735251 -0.22191718 -0.012351825 -0.24247405 0.19369772 -0.7530669 0.28001228 -0.1154687 0.04042476 -0.48721465 0.3984103 -0.15578757 -0.79683703 -0.29272756 0.07020434 0.03597113 -0.5078027 -0.11784224 -0.1977 0.20331855 0.5078999 0.13017382 -0.08604232 0.103019744 -0.094535746 0.01598661 -0.576668 0.09133075 0.035005514 -0.2883542 0.20408213 0.01698405 0.015367102 -0.39083064 0.034506813 -0.22601071 -0.06867218 0.010393144 0.3005701 0.040427476 0.23426093 0.3226465 -0.58520603 0.1817237 0.24844484 0.006696314 0.16647638 -0.12813042 0.36394343 0.024842339 0.031891484 -0.030663578 0.008948404 0.47642064 0.22529615 0.24891455 -0.17987905 -0.11974505 -0.24494629 -0.2041764 -0.37098867 0.36138707 0.1581198 0.4196644
4a78361cfe24cfe7280f01ee5737f476f27cd812 0.30935553 -0.14389306 0.10976163 -0.33205292 0.2812426 -0.6207124 -0.10825276 -0.25729698 0.24938422 -0.23250753 0.19721934 -0.061401073 -0.23282129 -0.35231918 0.6496927 0.18086644 -0.28631702 0.1335642 0.18179116 0.66309303 0.7814324 0.4073476 -0.54429775 0.3147932 0.058454 -0.020990783 -0.2638172 0.34395322 -0.05239552 -0.08145424 -0.26208645 0.31132588 -0.32188424 -0.2370777 -0.28616315 -0.1628069 -0.032466847 -0.02763965 0.14434981 0.06475469 0.12333617 -0.119778164 -0.278427 -0.015243297 -0.21283568 -0.2966167 -0.072671376 -0.53933346 0.185068 -0.4169519 0.30417594 0.13302357 -0.27123654 0.500378 -0.09283511 0.28442097 -0.041210588 0.032593153 0.12659088 -0.05919579 0.12130003 0.05653823 -0.13393694 0.20328335
458946889ec1ac814fe72623e0de63a74208e3b1 0.021133475 -0.24157935 -0.49520016 0.096747145 0.48400763 0.42043135 0.3981107 0.2375634 -0.4004502 0.45259055 0.03753903 0.29653206 -0.36520684 -0.42498672 -0.21195416 -0.0324375 -0.82347393 0.11098968 0.21729545 0.19393766 0.34800076 0.14065489 -0.31374627 -0.15706123 -0.085914664 0.07390269 -0.070973285 -0.074266605 -0.017133005 -0.4415782 -0.13194747 0.07483085 -0.033307757 -0.6177451 0.17613971 -0.08164214 0.17921011 -0.48002747 0.21771903 -0.28661147 0.13606901 0.215002 0.26550978 0.2845657 0.30079186 -0.2778898 -0.3007698 -0.0044641565 0.09829949 -0.19465241 0.35825637 0.66186017 -0.36876017 0.665742 -0.03430698 0.4105905 0.032890398 -0.41312847 0.12983413 -0.3303529 -0.1427974 0.0028948928 -0.10873006 -0.19038726
c659c5c2dc5471efff27282d55828c93bcbe4b1d 0.0791328 0.15406227 0.109254405 0.22854082 0.35687658 -0.15226963 0.03259874 -0.4141916 -0.4828244 -0.08981074 -0.51090246 0.021365842 -0.46298325 -0.45596635 0.0040097497 0.02744423 0.26702237 0.11432312 0.34089714 -0.6968326 0.44846907 0.17325316 -0.54876643 -0.43042934 0.0145292645 -0.17510432 -0.18166418 0.08276289 0.13776378 0.31749675 0.13497333 -0.4050838 0.22611268 -0.6950429 -0.019456983 0.30083477 -0.105426475 -0.23115167 -0.81336176 -0.24966954 0.34622547 0.04873217 -0.19803372 0.693827 0.65453917 0.47320068 0.40525538 -0.113758795 0.2382113 -0.31963316 -0.06186672 0.364255 -0.20221148 -0.39850724 -0.08209994 -0.4585182 0.2043814 -0.43454453 -0.22864151 -0.21106353 -0.2517242 -0.47538486 0.16276337 0.9163166
d3f038d9842b18d8c287cc133e987daa020adf84 0.27666214 -0.48301342 -0.7905485 -0.22456482 -0.11404801 0.36352885 0.3712232 0.15157576 -0.4293362 0.06519464 -0.4723993 0.23396891 -0.168082 -0.32307968 0.10475599 0.0057914043 -0.68035585 0.5993459 0.2693201 -0.3223274 0.47050312 0.16231555 -0.2786944 0.31249323 -0.03538116 -0.2421654 -0.08433691 -0.5888638 0.43076992 -0.008115417 -0.20288801 0.42359176 0.20076817 -0.69538057 0.040271446 -0.12757969 0.43791485 -0.41518033 0.3153563 -0.18887417 0.30223766 -0.06308468 0.18097009 0.31425932 0.2771343 -0.34445965 0.07818379 -0.046185598 0.39268366 -0.11919766 -0.17578372 0.5200153 -0.013659481 0.08518184 -0.02671306 0.28978372 0.6202253 -0.051879667 -0.036286525 0.10346939 -0.5534324 0.15064965 0.16837403 -0.45402786
c4a2373c723d9c4513593ca2aa551a82b9e86b16 0.04702136 -0.1375001 0.014862731 -0.10067791 0.22071572 -0.88322216 -0.087257825 -0.30141574 0.04286036 -0.12997256 0.2585955 -0.14967018 -0.54072636 -0.24094537 0.4075672 -0.16578218 -0.41205677 -0.35884088 -0.20192657 0.28099284 0.66345394 0.4391639 -0.34970158 0.22731438 0.053110845 -0.2556086 -0.39948857 -0.14931257 -0.1589598 -0.13637918 -0.022353519 0.22437002 0.13860641 -0.3084052 0.27474162 -0.3112214 -0.24609853 0.18688034 0.28383312 -0.17344925 0.2546164 0.070452616 -0.52447826 -0.034212198 0.18640698 -0.04721645 0.15339622 -0.24750318 0.47876924 -0.031191833 0.02284021 0.092149474 0.34418043 0.3735468 0.21381553 0.31908104 -0.1909801 -0.20051143 -0.31580302 0.05873853 -0.45671988 0.22256453 0.1910504 -0.023409132
6d4dcf4aecf8c0efd2c7956c439650ee3a5aa628 0.043499842 -0.2150058 0.13372795 -0.30760843 0.38730967 -0.77172625 0.16500616 -0.4464503 0.10687871 -0.40414283 0.29577902 0.5363541 -0.7381427 -0.101176046 0.16630314 -0.22756039 -0.456402 -0.049016133 0.18068588 0.00750691 0.64905494 0.22089252 -0.05931431 0.18605913 -0.10396911 -0.16038187 -0.13824478 0.07419454 -0.085517645 -0.010706809 0.16009033 -0.086586885 -0.07531167 -0.14911088 0.041068003 -0.18130672 -0.13157783 -0.26879302 0.26164532 -0.007971595 -0.12049721 0.11202857 -0.59914654 -0.022226797 0.12748626 -0.28261593 0.046246402 -0.02624749 0.3964985 0.08437605 0.20996255 0.042429466 -0.025497321 0.13162006 0.27835533 0.4928991 0.3205113 0.07083756 -0.12847689 0.42451823 -0.187981 0.21149933 0.41746122 0.06850166
4acb45494d9593a2be205c29c957f5ee925d9715 -0.063445605 -0.32833487 -0.27864432 0.008296607 0.68322223 0.25654572 -0.39136934 -0.28319085 -0.38271055 0.54597837 -0.6565964 -0.4284125 -0.28309697 -0.30368003 -0.05156931 0.20320107 -0.20897143 0.12754889 0.120327584 -0.03896905 0.16774145 -0.18216637 -0.12128022 -0.2912767 -0.11040782 -0.011231578 0.04545434 -0.21909326 0.57346714 -0.19266784 -0.28569472 0.45156074 0.17757995 -0.6066473 -0.14129345 0.25112593 0.0014633717 -0.2849926 -0.24182113 0.27369043 0.5104548 -0.2565531 0.009748373 -0.017762944 0.27716297 -0.31532824 -0.0043078708 -0.41124445 0.07843272 -0.08967039 -0.13093312 -0.1408334 -0.26085573 -0.3229957 -0.08559265 0.49792486 0.032169 -0.60380054 0.026346277 -0.6110162 -0.4264434 0.35079283 0.14553583 0.26985076
6f223884a0f9daef66aec86bfaf2c9bc7fefaf91 0.050208353 -0.0742271 -0.08560893 0.14004914 0.5740782 -0.1344764 -0.1856377 -0.7487008 -0.37798038 0.14113514 -0.3844564 0.16078694 -0.4451401 -0.50498426 -0.028518472 0.050821643 0.3323544 0.03515221 0.5404996 -0.6892027 0.45778605 0.05336772 -0.52931195 -0.468829 0.032681912 0.05396087 -0.20906757 0.2834133 0.32557353 0.23633438 0.14528717 -0.079764105 0.19280513 -0.72728986 0.18822856 0.18343319 0.062040605 0.099184975 -0.59299463 -0.05007084 0.24572222 0.21186273 -0.098597474 0.51680523 0.7848034 0.33391145 0.3986971 -0.09508812 0.29734382 -0.35039556 -0.046863962 0.28206027 -0.31620258 -0.29268295 -0.12308586 -0.39948645 0.013605563 -0.5358612 -0.047570776 -0.112071164 -0.22499917 -0.5114993 0.12838975 0.70821035
e4588e310eb25a28103ef8b82b2c397ce371d84e 0.49402285 -0.40434766 -0.3169462 0.19290319 0.7877956 0.52896744 -0.1597618 0.11629689 -0.5197426 0.52817106 -0.16960333 -0.315032 -0.15054229 -0.85971117 0.5520553 0.10043178 -0.31438175 0.37093166 -0.44865656 -0.02337413 0.276251 0.11660904 -0.31984574 -0.32677186 0.32456025 0.22027612 -0.001657614 -0.11341433 0.05891595 -0.35615632 -0.08020184 0.63344103 -0.1677442 -0.26498047 -0.089100555 -0.18526417 0.23507623 -0.52226216 -0.40503576 -0.19120789 0.15712246 0.0005045515 -0.06195676 0.27822423 0.24083573 0.027195863 -0.13852702 -0.25338498 0.18092458 -0.17735426 -0.3595877 0.23436259 -0.19991165 0.25835907 -0.087411515 0.19074443 0.23948534 -0.16483392 0.063282624 -0.5151772 -0.49235934 0.12086774 0.24516702 -0.17439847
4f7ea8f876b1c766ab68ff5184d1c0b0a1e30308 -0.15087959 -0.10606549 -0.14030124 -0.12030608 0.33990714 -0.18772489 -0.058318216 -0.77278745 -0.3274103 0.18223913 -0.34218538 -0.25437292 -0.41819122 -0.45842165 0.1732908 0.14345 0.22766092 -0.050395314 0.6066278 -0.6736076 0.4170776 0.4685261 -0.4375893 -0.29166508 0.13121308 -0.11387248 -0.11438096 0.26471692 0.17347363 -0.043659788 0.19844595 -0.3390769 0.094369255 -0.6443193 -0.0019324865 -0.012584848 0.1415296 -0.3747919 -0.8130983 -0.11588233 0.08725327 0.13303001 -0.15903337 0.5052072 0.57583976 0.115672395 0.39794186 0.03504582 0.23810829 -0.012099744 -0.112104416 0.24974726 -0.284956 -0.19298989 -0.22493893 -0.4029898 -0.00037833728 -0.5724296 -0.08717699 -0.18341802 0.14340588 -0.5474291 0.023878781 0.48125577
ce5ac738b49293edab8a3168fe3f19032ef2627d 0.25451314 -0.343056 -0.24584539 0.030145722 0.24077015 -0.7162127 0.22557853 -0.32913348 -0.03785303 -0.34736264 0.39042458 -0.06851686 -0.68509156 -0.41646415 0.2990925 -0.31255558 -0.6060933 0.09806533 -0.24495254 0.07844068 0.59527594 0.13446939 -0.17529903 0.09727898 -0.35405967 -0.12767947 -0.316879 0.15214948 -0.25615755 -0.27251765 0.45374 0.09969566 0.1297764 -0.18255983 0.04587862 -0.402967 0.0669209 -0.009982571 0.38747346 0.0027888685 0.06996841 0.049884282 -0.32489344 0.10747144 0.2355089 0.04012145 0.26161814 -0.23852041 0.26888332 0.0035384449 0.09900821 -0.050736386 -0.15413655 0.5810417 -0.10407291 0.33628944 -0.0551903 -0.028780654 -0.1530278 0.13517639 -0.39084104 0.29278153 -0.15244852 0.26390558
0a0c29602eb99b5a3bff3a1fb61faaf173062716 0.13957235 -0.16449106 0.099549964 0.08924093 0.44271377 -0.07683164 -0.285305 -0.56901604 -0.38852906 0.25903785 -0.22139652 -0.025007565 -0.4909046 -0.5323179 -0.011124048 0.013211542 0.18378074 -0.0784039 0.43334818 -0.6668279 0.61366475 0.21341172 -0.4687051 -0.29356328 0.056494813 -0.17280746 -0.28468847 0.30555946 0.6073474 0.273074 0.20220055 -0.12296825 0.19150785 -0.42640018 0.1172816 0.21432681 0.15559055 -0.09264799 -0.76635325 0.066936284 0.17747396 0.16293491 -0.13690187 0.53040767 0.4973504 0.048137154 0.3730131 -0.081194125 0.40541193 -0.22205049 -0.21311529 0.3887118 -0.14719175 -0.2923801 -0.18641788 -0.52123773 -0.24013224 -0.594606 0.0045152735 -0.04081553 -0.13551162 -0.59111404 0.11888601 0.65113527
05133fbc4926ac730bbad4f604933b3bb6fb7445 0.66763127 -0.49769163 -0.658801 0.023192208 0.5060328 0.42296356 0.15434432 0.2505269 -0.5629203 0.2546365 -0.23031053 -0.20028554 -0.28899997 -0.43966916 0.28838313 0.20003393 -0.5145387 0.360343 -0.17539948 -0.47345278 0.40410563 0.1900045 0.0069126072 -0.13063797 0.23409835 0.12857167 -0.1892924 -0.46869144 0.45860198 -0.33763078 -0.1971959 0.06542236 -0.04513543 -0.28006044 -0.13531137 -0.30662784 0.06479452 -0.8037628 -0.4696979 -0.006450493 -0.0814125 0.06892484 0.21726616 0.33220848 0.52466595 -0.11954687 -0.09010642 0.00503758 -0.018088939 -0.05103933 -0.13830787 0.46788588 -0.40717384 0.18470009 -0.113121144 0.35626647 0.37303483 -0.3886057 0.25517395 -0.34188297 -0.43100625 0.3591164 0.13442025 -0.12378573
f11f1a5408d5e5e08f9663e96ac911fa002ea023 0.08179825 -0.19744499 -0.33662507 -0.22611825 0.056760408 -1.1235921 0.20264433 -0.19779342 0.073064215 -0.26272267 0.43349072 -0.27077332 -0.35738215 -0.40828228 0.10797164 -0.14474903 -0.5540363 -0.037664764 -0.013757119 0.03346351 0.66627896 0.28903076 -0.2952778 0.054643523 -0.35210022 0.40678278 -0.17036796 -0.123055436 -0.17151667 -0.12245981 -0.1194225 -0.010035204 0.13424754 -0.08168289 -0.20098206 -0.25782728 0.16276808 -0.056846946 0.038831316 0.19418769 0.037421573 0.009565199 -0.703453 0.006132164 0.17023371 -0.13204256 0.28158653 0.22011392 0.3043277 0.081269495 0.32306924 0.051450595 0.10065546 0.3533892 -0.12833127 0.16041219 -0.23040786 0.17870435 -0.13100585 0.06452294 -0.43151343 0.033999395 0.26293975 0.12202115
04b38f39d9831a9e0da58d7829adbc4b0e63acfe 0.2575213 -0.50842464 -0.07140543 -0.13756377 0.08771208 -0.83372706 0.44139624 -0.23129947 0.16103107 -0.55433655 0.18569358 -0.08088054 -0.48525095 -0.24566264 0.16762498 0.12588371 -0.59079236 -0.2037954 -0.15570432 0.31034708 0.70763206 0.11886711 -0.13808809 0.14761165 -0.1595178 -0.026465185 -0.52429724 0.1952633 0.13550864 -0.24892876 -0.030378023 -0.11826461 0.21874237 -0.3297208 0.039431177 -0.17455716 -0.06400565 -0.004454182 0.38958377 0.17280272 0.38255423 0.23287785 -0.6279534 0.19213231 0.16589952 0.15206596 0.21473674 -0.1434725 0.2883198 -0.073551625 -0.089807674 -0.16770321 -0.04887034 0.41296044 0.13524248 0.114097424 -0.08749206 0.09946327 -0.41550234 -0.14843948 -0.60191864 0.4495542 0.30584073 0.30244634
9f29e9b9dd838c5c303eac7d94238f03335b538d 0.021458367 -0.20569065 0.3053446 -0.3613812 -0.33498907 -0.5006391 0.41829747 -0.48590747 -1.0733352 -0.02631395 -0.010548698 0.8161734 0.09702473 -0.37933335 0.15935178 -0.43526495 -0.12736098 -0.15114263 0.5404295 0.31101018 0.58840376 0.26758063 -0.371403 0.399193 0.06967742 -0.19206682 -0.1672837 -0.19251361 0.45088825 -0.268013 -0.118945606 -0.027874857 -0.15497275 0.07418949 0.24134795 -0.34678847 0.13455217 -0.27848408 -0.44624326 0.37101635 -0.31380156 0.25969747 0.21570057 0.39150527 0.050523285 0.24882323 0.31619164 -0.19611317 0.053894125 0.08763537 0.04479712 0.105870105 -0.03750734 -0.21776193 0.29721585 0.718883 -0.4739144 -0.28050902 0.04409468 -0.25028652 -0.20366558 -0.17336664 0.58534825 0.056643307
2b67d1aead5e9d3631f6714d4559ceec1aa98f99 0.03923878 -0.23220137 0.19281502 0.16553406 0.0035951524 -0.6931334 0.3861571 -0.49873102 -0.93177235 -0.101564474 -0.1583261 0.26800564 -0.24111405 -0.24378665 0.5243179 -0.34342054 -0.13571434 -0.23024769 0.2232589 0.1733162 0.46355134 -0.067490675 -0.6328945 0.0011670972 0.13043867 -0.09829424 -0.32550186 -0.5492784 0.40000638 -0.4787449 -0.026034277 0.19556141 -0.4635177 0.29584756 0.09504289 -0.35792089 0.18031625 -0.6243322 -0.4946185 0.13796954 -0.40740553 0.6896881 0.3276249 0.5599372 -0.13156235 0.524112 0.12028322 -0.124140225 -0.16072997 -0.0009234397 -0.20496424 0.37707326 -0.20071201 -0.5490508 0.16407558 0.24552889 0.07945495 0.07167258 0.4517556 -0.096058935 0.010761141 -0.08362868 0.88612705 0.2464472
ef1d252cf457557eb79b45789e83ab83b8011a1a 0.16958147 -0.34190544 -0.21444455 -0.13655446 0.17439257 -0.85167176 0.3676073 -0.2250167 0.109393954 -0.3744958 0.36272326 -0.20997429 -0.70758766 -0.42761528 0.090314806 0.13779551 -0.39708766 0.09430881 -0.2734643 0.28189382 0.60518295 0.22705297 0.048009537 0.20408651 -0.13373211 -0.055517774 -0.57530034 0.075486146 0.13692285 -0.26008102 0.1356345 0.17543754 0.23924963 -0.3509738 0.105552316 -0.24034454 -0.14901403 0.1688793 0.25073716 0.184246 0.1766433 0.19136794 -0.45737487 0.09576583 0.4355505 0.08292308 0.13516176 0.016573437 0.25730604 0.014714044 0.10197288 -0.15018992 0.07537266 0.38596502 0.3302626 0.104608156 -0.09986772 -0.18321216 -0.046439093 0.031252712 -0.29668206 0.43061557 0.2882821 0.37750387
459a3d8d1fd4a6bfe8eb2834c0d4c7b7d9a2ba3f 0.3371803 -0.60422695 -0.73796964 0.14943141 0.6308281 0.3372792 0.048995413 0.3010467 -0.47262707 0.29164094 -0.34163195 0.060188673 -0.28190336 -0.50138617 0.2628179 0.35696787 -0.38138583 0.18586941 0.05262939 -0.39664826 0.5461566 0.066099904 0.09563611 0.057690058 0.002034617 0.19569461 0.06666525 -0.26833805 0.43924922 -0.45443583 -0.37481788 0.47872886 0.21025114 -0.24639323 0.15167058 -0.114133075 0.3101511 -0.6662292 -0.18362124 -0.033977047 0.26074386 0.078738354 -0.011667737 0.49601027 0.465479 -0.25292835 0.24488704 -0.13210778 0.024292357 -0.116421446 -0.11795392 0.46215862 -0.075015865 0.17651546 0.28499976 0.07572662 0.4135487 -0.021892108 0.37431315 -0.2628735 -0.54924107 0.25694823 0.3500617 -0.4957665
bf02016c27584780c783286e44ae7b1b5415b490 0.37577564 -0.4272619 0.012532011 -0.024266694 0.029640032 -0.88764936 0.18129253 -0.4760706 -0.03628367 -0.27980295 0.20508748 -0.21843968 -0.484089 -0.34857902 0.15425417 -0.03954361 -0.4021316 -0.13781425 -0.34705293 0.31150514 0.56018895 0.4090601 -0.04332486 0.099172615 -0.17054467 0.12958966 -0.4197985 0.20971225 0.065551594 -0.28196487 0.15730792 0.08060061 0.0697554 -0.1293598 0.24998216 -0.2952387 -0.08974538 -0.043696932 0.36787254 -0.024592381 0.05119093 0.362793 -0.8284614 0.15474509 0.19258118 -0.031188564 0.2885824 0.08362248 0.37945753 0.11834622 -0.07114476 -0.09292935 0.21908106 0.47445965 0.16059592 0.015847987 0.08361355 -0.13337545 -0.15693781 -0.37126145 -0.317667 0.53426194 0.2683078 0.3054127
f9be5e245feb28063a36cf09e26f09399c80c32c -0.016350716 -0.5016005 0.24322623 -0.2779177 0.767099 -0.32252115 -0.2251215 -0.022209805 -0.21720186 0.39230204 -0.03788291 -0.5688907 -0.14021893 -0.76024157 0.6318428 -0.18080315 -0.13233587 -0.23672932 -0.16752213 0.07087809 0.61243033 0.37752318 -0.05056132 0.05650178 -0.40188584 -0.07417563 -0.10073597 -0.23661864 -0.04464977 0.24702378 -0.7809737 -0.07309434 0.34953028 -0.2831854 -0.16405292 0.057226483 -0.22421606 -0.060780548 -0.06213884 0.32793415 0.15735023 -0.06279257 -0.23937134 -0.033697 0.1996524 -0.044214666 -0.2828797 -0.44043848 0.33527967 -0.6285367 0.07133687 -0.08316958 0.08236803 0.022364821 -0.29211348 0.088719234 0.07588007 -0.06321219 -0.008100155 -0.4850339 0.15902749 0.11217328 0.031470127 0.3488413
dda36e3cfeadef2b756b9df0430f8c2d375faf43 0.55674535 -0.6489904 -0.60950154 -0.3117971 0.5928891 0.6307526 -0.14397569 0.052508704 -0.51216245 0.19228531 -0.5551076 0.0049600764 -0.34845388 -0.5531948 0.4577116 0.6401518 -0.79166764 0.4881751 -0.001127438 -0.23227379 0.60174274 0.098458976 -0.03045592 0.15494257 0.017313745 0.080274425 0.16060634 0.024650944 0.3520026 -0.009364269 -0.40166438 0.20573479 0.0763836 -0.026871763 0.008369645 -0.06563908 0.09192924 -0.4937131 -0.18821812 -0.05896914 0.36337438 0.106692694 0.120403446 0.33744687 0.47139424 -0.052010063 0.4086144 -0.027879212 0.21334481 0.20424989 0.11089942 0.54804003 -0.41783574 -0.039430443 -0.12361806 0.29837435 0.20913388 -0.18388067 0.36781567 -0.47479632 -0.3773125 0.22268249 0.34640864 -0.2264205
234d36975fda9bae73370a8ec71af93a60e06c4b -0.2941797 0.12465625 0.034642838 0.19551943 0.72201335 -0.1506649 -0.24259447 -0.87945765 -0.18706922 0.012791374 -0.41603616 0.05494254 -0.33030638 -0.26071906 0.06494464 -0.025355253 -0.019310754 -0.16885789 0.7466011 -0.4617202 0.36774182 0.2783703 -0.28619877 -0.03526468 -0.07065672 0.021881908 -0.3719994 0.27035064 0.30583882 0.24455757 0.2490074 -0.22002952 0.17189132 -0.63551086 -0.060289755 0.1302765 0.05132005 -0.28168085 -0.85725325 -0.2632731 0.004356498 -0.10572009 -0.11381033 0.45623964 0.5483219 0.118623056 0.33703482 -0.15577707 0.19697364 -0.023732994 -0.18317436 0.7363625 -0.017172575 -0.1599452 -0.06192195 -0.24646105 -0.2709159 -0.54430676 0.22607191 0.02041282 0.41928056 -0.5452953 0.5312723 0.4695779
1b5e9842286ae3184e6d88cf48f04c51934664e6 0.14912707 0.30571133 -0.04790443 0.15007867 0.58190733 -0.10200116 0.11853206 -0.5421719 -0.2532632 0.117820084 -0.811141 -0.19084543 -0.42384237 -0.62674385 -0.09595354 0.069472104 -0.037929133 0.14362454 0.5200722 -0.6558656 0.37952295 -0.055747133 -0.32178512 -0.4553086 0.09442578 0.01848447 -0.4428744 0.5228491 0.119237535 0.1285923 0.15722722 -0.28294757 0.24224 -0.3135345 -0.09707584 -0.060028836 -0.03187792 -0.061353836 -0.7902561 0.21922158 0.15707162 -0.050766926 -0.30637792 0.59441984 0.41679057 0.17588563 0.07255604 -0.5310553 0.09175318 -0.31950676 -0.05040442 0.3761197 -0.50255 -0.4028854 -0.01389452 0.08432077 -0.006959149 -0.67831826 0.014064868 -0.011172565 -0.5022117 -0.4029278 0.034617145 0.014515035
e67cc8c80ae4161570542dd3c1b340d76c14a005 0.12973927 -0.57891697 -0.075937934 0.13020079 -0.067496434 -0.18871489 -0.1024597 0.10025351 0.2973654 -0.18255255 0.08334565 0.24131821 -0.6663156 -0.05250495 0.010662732 -0.7496396 0.3178821 0.021855626 -0.36918485 -0.25042608 0.5887633 0.5121825 -0.27939078 0.50116616 -0.37223643 -0.108148225 -0.6769429 -0.018143341 0.2944899 -0.21087334 0.1929159 0.3157544 0.6611632 -0.12235237 -0.098499544 -0.42452952 0.21454968 -0.09519508 -0.20352104 0.16432963 0.47209844 0.11407046 -0.23012005 0.22740081 0.5103172 -0.42853314 0.035707284 -0.31866473 -0.17938344 -0.26813927 0.23819138 0.09809037 0.027032 -0.24276344 0.13388053 -0.056322154 0.12215103 0.33731136 0.4639602 -0.23363252 0.00033170287 0.3916873 0.04820618 -0.2628806
cd76aff5910cb32ded03a0ffa89d95662a253f82 0.13471785 -0.34238368 0.09804079 -0.18630093 0.20166074 -0.84249115 -0.10250857 -0.20346463 0.17151338 -0.42203695 0.34423333 -0.22788453 -0.57544506 -0.5710992 0.16792525 0.18133868 -0.6899876 0.13832939 -0.13131557 -0.002954632 0.573375 -0.024424326 -0.2753359 0.14191715 -0.14425011 -0.10907764 -0.19291833 0.14659469 -0.20642087 -0.0908509 0.005078676 0.16602106 0.05955405 -0.32772666 0.0014452141 -0.32714674 -0.3062972 0.08903317 0.16927974 0.07249348 0.4276392 0.15016489 -0.48300946 0.027393304 -0.061736807 0.15080918 0.19235647 -0.08875674 0.26947752 0.15819022 0.28831685 0.2196931 -0.023474544 0.017689476 0.17176165 0.4109658 0.056579974 0.063153125 -0.0917645 0.18926546 -0.3465782 0.3833941 0.15919025 0.1921607
6ea0cad4c13a1d28496527cdae24100ee53c22fd 0.35780352 -0.4548087 -0.19004752 -0.112474576 0.19292769 -0.96647817 0.35351872 -0.21935873 0.021784002 -0.39324418 0.36012506 -0.29014748 -0.62603116 -0.378078 0.14000614 0.05171483 -0.57491434 0.018380357 -0.39371213 0.19416228 0.56359047 0.08812416 -0.06329605 0.1126091 -0.25224236 -0.058776956 -0.45470014 0.067890845 -0.0737577 -0.0057979226 0.17585029 0.13381912 0.2715759 -0.17078298 0.013423327 -0.13856931 -0.024129491 0.24093388 0.38907743 -0.0016699277 0.26638877 0.3446457 -0.53154105 0.30472368 0.107758425 -0.060550153 0.1837532 -0.11965137 0.46187446 0.021029651 -0.12092126 0.009295677 -0.007455894 0.3949902 0.4079655 0.18878485 0.029390194 -0.07486973 -0.23355855 -0.19723897 -0.31598696 0.2835284 0.37374845 0.527566
f68e0545c5dd35aa6b2fcbffb89e94b2899f5858 0.41944647 -0.5141327 -0.18381058 -0.3133522 0.2866815 -0.9847612 0.38493443 -0.4104235 -0.014332266 -0.38516954 0.31103423 -0.22997756 -0.6291627 -0.13974969 0.29462665 0.045663957 -0.28699967 -0.11212422 -0.22052166 0.14549202 0.4868969 0.34241977 0.023378026 0.11081061 -0.029826576 0.19513582 -0.5592591 0.04318772 -0.009264682 -0.05643957 0.0999596 -0.038271144 0.24724646 -0.215633 0.29607213 -0.23340188 0.0673554 0.22472829 0.43437597 0.01732771 0.26172066 0.31697038 -0.5086766 0.06598039 0.27778924 -0.006895301 0.071746975 -0.055549763 0.39834324 -0.121170275 -0.19932991 0.04855591 -0.071627125 0.38755187 0.5377875 0.32866606 -0.0761553 -0.10940508 -0.2009341 -0.043638445 -0.38029066 0.6009499 0.33103612 0.48291904
9d5273ec942a135d196d060b2e4bcb1b24ff954a 0.54767555 -0.086519256 0.08207709 -0.35305548 0.23607223 -0.81902283 0.36739337 -0.61614555 0.22096299 -0.48403803 0.18279292 -0.076412305 -0.71695465 -0.12474203 0.19291398 0.09733288 -0.37180623 0.2813777 -0.32563028 -0.08006303 0.59553474 0.6289117 -0.15843396 0.105312794 -0.12225479 -0.13406248 -0.42146546 -0.18737862 -0.095587626 -0.18078168 0.20082548 0.03014513 0.41272205 -0.19877733 -0.012535546 -0.084640205 -0.013100207 -0.058624625 0.61318684 0.03729547 0.067712195 0.06281038 -0.45915663 0.06903836 0.1044236 0.16762078 0.30734804 0.04366195 0.45817962 0.18008706 -0.20703892 -0.058768503 -0.10090615 0.1687265 0.03584836 0.43102655 -0.003180053 0.21133557 -0.022814682 -0.2969868 -0.121404134 0.2623512 0.17149636 0.39039364
02ee666b8b7f64b3d6ec6be7a6d750bfac29592b -0.3766944 -0.17778037 -0.1639992 0.21460924 0.81555414 -0.26263034 -0.08794005 -0.6705843 -0.33895183 -0.020165065 -0.2436667 -0.09003241 -0.2902429 -0.5978568 -0.48856384 0.17639995 0.43600455 0.04403045 0.5305413 -0.5131831 0.4274478 0.09347274 -0.37951243 -0.24670726 0.29164687 0.1940508 -0.10531185 -0.11902513 0.43212 0.33202946 -0.09919469 -0.20415135 0.5653845 -0.6043125 0.0858301 0.001742474 -0.14711986 0.0812365 -0.61072356 0.15417731 0.25184998 -0.08505317 -0.079337165 0.3601738 0.32775825 -0.047780413 0.15465859 -0.5199486 0.31975517 -0.17750344 0.02729957 0.4168599 -0.13137947 -0.014530577 0.26509568 0.12426535 0.08138505 -0.35112667 -0.06904409 0.15655808 -0.12263232 -0.38114288 -0.1369027 0.51286507
6d09b6d268a5454f989bf3d321c49d61e1616996 -0.15672223 -0.31276998 -0.2646817 -0.053422067 -0.14597803 0.0058611864 0.020486057 -0.37320116 0.21861483 -0.26978612 0.27746278 0.56755865 -0.4825168 0.09527484 0.23909502 -0.90710497 0.21897396 0.070431516 0.01996883 0.15957244 0.3940396 0.54554534 -0.5777417 0.14397196 0.043409064 -0.2074803 -0.36817992 0.26851776 0.23123015 0.12276188 -0.19295935 -0.04948145 0.52013457 -0.28333586 -0.2047775 -0.6429934 0.022110783 -0.40083435 -0.014613038 -0.15261921 0.5230939 0.13134253 -0.559075 0.4276513 0.19059691 -0.2801987 0.40092131 0.45369095 0.4633034 -0.07071413 0.34830847 -0.112657204 -0.0055916295 -0.08874557 0.1596813 0.40667805 0.123141706 0.30306542 0.5962883 -0.24730328 -0.02696329 0.12780392 0.34262097 0.3055958
7bc22201ac00558f4d84bb654e5c9247b8d724a4 0.2875988 -0.2927504 -0.06459955 -0.097573034 0.3674225 -0.9850803 0.18281822 -0.3754187 0.04660591 -0.5590824 0.17471582 -0.22790997 -0.8529571 -0.29924998 0.15139136 -0.1422423 -0.45291257 0.055282176 -0.30538538 0.31241363 0.5469627 0.06724963 0.047321033 0.027928047 -0.112445034 -0.104381345 -0.53524226 -0.040826466 -0.036759123 -0.2472503 0.23965584 0.036303177 0.23383504 -0.19324042 0.16239569 -0.3380495 0.113395736 0.0748502 0.4031466 0.018681929 0.10987085 0.20113139 -0.41111815 0.09941094 0.3480647 -0.120715275 0.29515958 -0.12798333 0.3303316 0.18344717 0.14779069 -0.03427417 0.00011846375 0.3610871 0.38686952 0.26196492 -0.11068516 0.19702418 -0.3193179 -0.27123502 -0.32024714 0.18404911 0.17524344 0.31586733
6b4ffaa0461ef6e54d4e7514501dae60a4277805 0.28501907 -0.29753315 -0.2353074 -0.19933501 0.38265225 -0.8173078 0.23989825 -0.35466903 0.012469882 -0.70179766 0.37937415 -0.31381023 -0.6179328 -0.11616392 0.3182139 0.02591646 -0.47428077 -0.022639463 -0.257968 0.2906408 0.4027257 0.4404403 -0.010094748 0.085997514 0.0011009055 -0.10231211 -0.53073454 0.070426024 0.09443319 -0.29629564 -0.015347371 -0.07937652 0.2678403 -0.29469776 0.18870889 -0.02505879 -0.08837087 -0.13844055 0.29894814 0.09864292 0.25372633 0.30617425 -0.50170654 -0.04995236 0.1591114 0.32352117 0.2679199 -0.1805938 0.36853558 0.270098 0.2830185 0.06699121 0.045295663 0.1351689 0.1527911 0.28560126 -0.049404744 -0.054451138 -0.09983493 0.06746214 -0.34816247 0.44665876 0.24120724 0.17035593
f374ad109fa926f097bafcfa9c5aa65cc64cf7c2 0.370007 0.21168861 0.5525125 -0.037974354 0.09656048 -0.5905181 -0.088642225 0.06969464 0.07040629 -0.26990837 0.53314644 -0.33762133 -0.7594091 -0.2343198 0.17465757 -0.21520193 -0.23819289 -0.32907444 -0.09408929 0.049397707 0.7584028 0.21386644 0.005339784 0.1146718 -0.2390201 -0.16387944 -0.13333997 0.019337183 0.067961484 0.0479445 0.25990394 0.419945 0.056313697 -0.493084 0.15830615 -0.14901556 0.2866943 -0.09708958 -0.50814223 0.24971658 0.13517247 0.3613483 -0.45297474 0.36432528 0.025166249 -0.319422 0.5763738 0.45366356 0.017380498 -0.06315963 0.14233927 0.29969257 -0.19289291 0.25841314 0.26436204 0.37244955 0.10569935 -0.027817918 0.07212502 -0.12608396 0.142942 0.7437948 0.004080724 -0.31788766
a35b358605ac639e00243d74ad98f4be7df5367d 0.06923649 -0.14876097 0.3479057 -0.19670063 -0.029316954 -0.8799214 -0.22200595 0.13442914 -0.042993598 -0.09128671 0.40086737 -0.13930431 -0.94131374 -0.16633712 0.25861415 0.14889704 -0.23171395 0.00037506578 0.1793002 0.004500357 0.5040264 0.34590828 -0.13102435 0.121947736 -0.02046907 0.017467314 -0.042082164 -0.09189024 -0.023574876 -0.097323835 0.07582016 0.21165992 -0.12895511 -0.4101136 -0.13249971 -0.09299934 0.31177565 0.09946221 0.26938584 -0.021029077 0.23738731 0.22937174 -0.5117584 0.36270744 0.2247694 -0.034421362 0.2070434 -0.029163865 -0.1216326 -0.20451806 0.32286188 0.12805463 -0.3593355 0.09541949 -0.26154834 0.2962283 0.11027438 -0.11069336 0.08345706 0.4815088 -0.42977613 0.66760254 0.35354605 0.1759667
ff2b062eb5fae29b06a96a0d0f178a4e390dbf9f 0.31340852 -0.4778577 -0.094333924 -0.14526893 0.047871783 -1.0025755 0.2595961 -0.08998161 0.04821161 -0.36455348 0.33912182 0.022943709 -0.65800464 -0.50245184 0.053908296 -0.04849861 -0.4116225 -0.0377686 -0.36043766 0.25835812 0.6305374 0.1359209 0.04684637 0.111432865 -0.22560339 0.18399169 -0.54066676 0.0016425557 -0.20826603 -0.24794897 0.20696332 0.0857312 0.1112233 -0.5687926 0.10627949 -0.2043069 -0.007326044 0.10067617 0.4644975 0.14221822 -0.04665183 0.27116787 -0.46376705 0.17907731 0.39336944 -0.14838602 0.26751274 0.143105 0.2159501 0.0034991284 -0.15059844 -0.04476916 -0.31390217 0.20670839 0.34459835 0.119968094 -0.09816398 0.034710307 -0.45094982 -0.38214117 -0.46503338 0.42687327 0.32010695 0.52417606
aff097917730e7eee947a58fdbe01aab8b7e6c60 -0.19869381 -0.14894119 -0.058493398 -0.051797617 -0.15753613 -0.6572914 0.22225298 -0.25827175 -0.98490065 0.01900163 -0.01679694 0.54799956 -0.014115418 -0.3639662 0.41849956 -0.32598996 -0.246049 -0.20037664 0.38736978 0.3648238 0.5889886 0.081123345 -0.74881095 -0.07705844 -0.24800172 -0.101736635 -0.16094178 -0.2274871 0.47561976 0.06739375 0.0686198 0.10773428 -0.05680327 0.29489055 0.06537202 -0.57224137 -0.030321999 -0.35062844 -0.28430903 0.19329411 -0.78962624 0.2616765 0.26425403 0.49576336 0.0782428 0.29483998 0.25197726 -0.10798419 -0.08170371 0.41073307 0.23474324 0.11722789 0.013906791 -0.044059057 0.39713496 0.52828234 -0.009125839 -0.18442158 0.0148876915 -0.5052696 0.017411612 -0.093317084 0.867935 0.55655247
a5546c10f66fc2aa3ff42bdd6141fa49652fae20 0.12014478 -0.2917109 -0.041274656 0.32557678 0.46942627 -0.59746665 0.17588246 -0.14168757 -0.07890249 -0.22523195 0.83875674 -0.21068895 -0.70488054 -0.37116343 0.108446516 -0.17874208 -0.9508796 -0.24671856 -0.067243524 0.17054252 0.39977777 0.20194446 -0.34129742 0.029619807 -0.029498477 -0.13911228 -0.3999529 0.34484154 0.18986462 0.11597926 0.024021186 0.09893388 -0.0037611735 -0.31340557 0.009831839 -0.37281543 -0.26266006 0.07666171 0.058504555 0.011036216 0.504055 0.31420133 -0.5182449 -0.297707 0.19538164 0.106776334 0.2959782 -0.1639844 0.37663367 0.22069785 -0.019597024 0.16025828 0.15690054 0.18740843 -0.26360136 0.2541859 0.1343007 0.21227162 -0.21793528 0.020371748 0.0047041345 0.038208712 0.09908481 -0.10671091
e3dca89647ad13c56beee5e0f9c4d9d46a0de317 0.38572225 -0.16938686 0.08117401 0.1524214 0.5515735 -0.20214878 -0.09401629 0.18512094 0.23064785 0.0015706166 -0.064114854 -0.16963014 -0.25994784 -0.3165071 -0.27304164 -0.22581375 -0.276866 0.026178913 0.063361555 0.20340738 0.46324056 0.79330313 -0.009173373 0.019846749 -0.19691971 -0.21401344 0.36274225 -0.31321824 0.23832396 0.14717855 -0.30387512 0.3681507 0.29313213 -0.35173237 -0.18479949 -0.17123976 -0.11858575 -0.040820498 -0.034475952 0.14168346 0.24553066 0.13781624 0.08504363 -0.15362433 0.18097444 -0.23641492 0.0738431 -0.4341785 0.4797305 -0.47445968 0.29939574 -0.10661268 -0.114818014 0.57402265 -0.69158226 0.3039051 -0.19288081 0.13618654 0.37282515 -0.79110223 -0.057747122 0.26737088 0.48043045 0.43201303
87f2d280ca04c8c37c5e81a46b8eb378b6783a8d 0.2215963 -0.13612695 0.029974194 -0.32301232 0.34866318 -0.5553971 0.09306164 0.017467868 0.15857019 -0.5431845 0.078580216 -0.18798327 -0.7121002 -0.4124138 0.25051734 -0.15075997 -0.5062138 0.010225433 0.07528312 -0.027762163 0.7705882 0.31899047 0.03840055 0.26711115 -0.43868902 0.14380743 -0.3435772 -0.023147995 -0.27421913 -0.100050144 0.10778711 0.19123787 0.1223881 -0.18708207 0.33631063 -0.51601654 -0.0674134 0.28886673 0.0920059 0.16206443 0.23161794 0.117318556 -0.7382977 -0.09188859 0.20684017 -0.060638566 0.099210456 0.018411 0.40605316 0.23511732 0.13265382 0.3373097 0.20082302 0.27466643 0.24833228 0.18224399 -0.07632583 0.25119597 -0.24362957 0.29926082 -0.32262918 0.37070093 0.41937017 0.17399292
45f5309b4e9b55de6e64fff79056395613f86e19 0.26371855 -0.36101145 -0.062959045 -0.15870267 0.16252543 -0.8809566 0.45232657 -0.27437294 0.13569053 -0.4376492 0.14237158 -0.17473617 -0.5583533 -0.46385694 0.14430602 -0.016998628 -0.4521713 0.13541515 -0.41553977 0.2064582 0.6136863 0.26045483 0.21138434 0.32340416 -0.23959565 0.07047356 -0.60392857 0.15967341 -0.13898687 -0.3194575 -0.026690148 0.1020866 0.18202345 -0.19121511 0.0055867797 -0.23214348 0.13423616 0.23817368 0.2441556 0.028625682 0.32535324 0.26156577 -0.42034268 0.1206562 0.31316072 0.02981662 0.25781956 -0.040195823 0.28307566 -0.18778387 -0.2332527 -0.07783162 -0.12467686 0.40853047 0.3085059 0.09485921 0.12248796 0.12858647 -0.38926467 -0.20561427 -0.35889274 0.36017007 0.3399353 0.5322303
67d2d22e9cc8329db6bf2a364ca06d3109020a9f 0.103924975 -0.19386569 -0.18753289 -0.056669973 0.20816828 -0.9902717 0.116689 -0.11529391 0.0895168 -0.3227912 -0.13229498 -0.27174574 -0.68678814 -0.08743739 0.025985047 -0.33729094 -0.65683347 0.14330894 -0.24462292 0.20935425 0.65277356 0.14881523 -0.063141644 0.30240777 -0.08266615 -0.047048185 -0.51704884 -0.14749259 0.088692404 -0.091714144 0.396429 0.084308684 0.08118873 -0.111268416 0.008831284 -0.18911749 -0.03681822 0.1690672 0.4266609 0.09615789 -0.14014402 0.16606732 -0.6036107 0.03802374 0.19289158 0.008138702 0.5023793 0.052394927 0.27500415 -0.010256459 0.26088804 0.20736133 0.27281237 0.23698315 0.38233182 0.19482535 -0.20260473 0.038223065 -0.12695558 -0.12512356 -0.30177376 0.20033471 0.40413794 0.3611633
25a36007e521b4229a7d8014375e54c391c1770f 0.3315553 -0.5543701 0.30933183 -0.49345425 0.4207569 -0.3364087 0.23406942 -0.19158176 0.27185342 -0.4994964 0.313487 -0.35943764 -0.48870435 -0.41138795 -0.06449973 -0.112961926 -0.3416842 -0.19019967 -0.04604788 -0.10167648 0.37978047 0.55994064 -0.6436378 0.20620254 -0.44580066 0.13993327 0.054559756 -0.12338833 0.0010182179 0.24162653 -0.3645829 -0.17952807 0.37146673 -0.053709656 -0.14284393 0.07218554 0.11811327 0.033975556 0.33748272 0.17404386 0.19336264 0.035277057 0.010275022 -0.37008184 0.26662236 0.09669627 0.19732444 -0.23410839 -0.3376112 0.22670078 0.37952572 0.22757939 -0.08971966 0.08773156 -0.19126387 0.28016806 0.15783723 0.1007082 -0.09847143 -0.44362867 -0.36477157 -0.18155847 0.14904033 0.20257643
c93b41f20b1f554dafcf25a9c750dee58fdaaf4c 0.059897557 -0.1578451 -0.072897784 -0.24459077 0.12079737 -0.5112087 0.32228047 0.07856446 0.19900458 0.028102366 0.6185872 -0.108392484 -0.45305386 -0.1692517 -0.050614145 0.09983064 -0.7058525 0.06188394 0.027410708 0.08550168 0.85052526 0.30518 -0.14706998 -0.02094114 -0.060540956 -0.012100117 0.07805784 0.08096514 0.08036468 0.120052755 0.28323513 0.2491074 0.08738861 -0.28293955 -0.27443853 -0.22793847 -0.13820826 -0.04276453 0.097075984 0.21651754 0.19475286 0.46313003 -0.42645568 -0.094666064 0.37381247 0.06810522 0.04829709 0.09471403 0.12583292 0.049807798 0.46257076 0.20445015 -0.025302645 0.057183944 -0.32658696 0.41344225 -0.035274766 -0.10608584 -0.26526937 0.11682397 -0.40304655 0.20325585 0.47080493 0.26883444
b1527762aed471fce8a3736e91169a40f89b0e6b 0.10949804 0.22273125 0.099569194 -0.095789894 0.589829 -0.19228303 0.07761338 -0.6023972 -0.77653104 -0.14877798 -0.21137165 -0.25682858 -0.32644552 -0.29782212 0.07963787 -0.121354885 0.503441 0.042191934 0.37168518 -0.65895003 0.36288065 0.21613242 -0.6337927 -0.442791 0.28157246 0.16173276 -0.18109757 0.16390379 0.30580884 0.13384363 0.27564558 -0.03907423 0.47776854 -0.5967091 0.110379055 0.11435951 -0.0066884984 0.008096498 -0.5921935 -0.28584635 0.58281 -0.037126504 -0.19430253 0.64944655 0.8483086 0.34859568 0.2608067 -0.3035399 0.44010884 -0.26477045 -0.09817298 0.35997987 -0.22164358 -0.12713902 -0.23859824 -0.5695365 -0.22647 -0.4447855 -0.15482329 -0.38363573 -0.10950077 -0.4389882 0.321715 0.46443042
52a8d8ea2ef0f172c2d3cf39db76f95a5ea4d406 -0.1855599 -0.09713663 0.08780819 0.11588244 -0.18295296 -0.8834333 0.38597652 -0.12674144 -0.9480646 -0.44445327 0.06122969 0.48927268 -0.108348176 -0.3973674 0.4234094 -0.36208004 -0.14670044 0.09651386 0.28383628 0.15316385 0.39885595 0.25085455 -0.57055455 0.42840743 -0.06697466 0.22709717 -0.28534988 -0.3647336 0.40328276 -0.6303014 -0.3018546 -0.053877052 -0.13802612 0.37786222 -0.06523449 -0.47248834 -0.059014853 -0.303169 -0.66803086 0.17957148 -0.51745933 0.510352 0.2678044 0.2583698 0.21102789 0.5064201 0.35808852 -0.103245676 0.06932278 -0.1520306 -0.15440165 0.37608334 -0.30411935 -0.32092276 0.43827626 0.383553 -0.007884105 0.24441552 0.1407456 -0.35554758 0.027102288 -0.08808457 1.0114768 0.2709438
8a496036cd8a5ed63e18d1c01ec977a06cfad611 -0.032173295 -0.056627367 -0.57546073 0.17470896 0.23983896 -0.06974259 -0.14251254 -0.41994953 -0.16869503 0.12281107 -0.70668536 0.04936106 -0.37655497 -0.82121634 -0.0925879 0.022996573 0.19316608 0.2919458 0.14613195 -0.3238186 0.38021898 0.36900836 -0.6942207 -0.17822482 0.14529383 -0.008827252 -0.13764498 0.013771231 0.018878626 0.045483433 0.122988254 -0.11472291 -0.07892029 -0.30629593 0.4275257 0.06067479 -0.10693222 -0.5245105 -1.0525699 0.039075468 -0.011174512 0.02436568 -0.0787128 0.16988647 0.35356405 -0.16959661 0.80704707 -0.6429751 -0.24450576 -0.43102586 -0.14933695 0.04883268 0.15754475 -0.067279294 0.08449548 -0.33925226 -0.5285019 0.019341798 0.20935372 0.29066005 -0.46847257 -0.27234927 0.05580258 0.3029611
ba8e67cb65f8e9ed76b345161dd4554647aca772 -0.05543413 -0.61399704 -0.12526453 -0.023769408 -0.36227548 -0.5775261 0.23199998 -0.15830243 0.01440768 -0.17730106 0.21332015 0.010997907 -0.17194693 -0.06597327 0.5396683 -0.6650444 0.27329388 -0.0042963964 -0.4190495 -0.12623902 0.45967895 0.1191997 -0.55208975 0.28748462 -0.28201008 -0.14554279 -0.52417725 0.10792065 0.12981573 -0.051325765 0.3503549 0.06877453 0.27430293 -0.14479208 0.039270565 -0.63906544 0.30551514 -0.044492416 -0.23108822 0.14695863 0.8945748 -0.39152074 -0.3551878 0.0034416576 0.24698566 -0.19846152 -0.035293978 0.2669801 0.4926856 -0.06289486 0.61311483 0.17789564 -0.34953818 -0.11626839 0.15567546 0.15476128 0.6255532 0.25410995 0.35771853 -0.5187126 -0.08879413 -0.1080267 0.38742182 0.12413171
f2d3fba13ac9884ebeb49428f10b8eafc950c97b 0.003743788 -0.14881009 0.40547958 -0.20056668 -0.058618616 -0.8913102 -0.18010783 0.06475598 0.10128153 -0.20636295 0.42427495 -0.19955198 -0.44667333 -0.17467953 -0.11034652 0.09789169 -0.47679964 0.045334436 0.11188876 0.03409538 0.95576507 0.21861638 -0.48792008 0.07285729 0.0006487054 -0.3103443 0.06533969 -0.008302833 0.086551 0.025240364 -0.009246712 0.67300177 0.34835917 -0.34286255 -0.039418124 -0.07634761 0.1553342 -0.40288302 -0.4194769 -0.009981125 0.0063207494 0.21386212 -0.45572993 -0.009606155 -0.14276531 0.28813264 0.3082983 0.18815695 0.49379176 -0.030003741 0.10058424 -0.14623079 -0.56049263 0.5393226 0.26485634 0.2614342 0.14480661 -0.29503393 0.02514738 0.38426128 -0.39997196 0.6486233 0.1699799 -0.111778155
7dd8c96fbd3f35fb3986bdf5b1a136c4c7ca8057 -0.09997656 -0.10918034 -0.09587531 0.12130756 0.3167425 -0.20629309 -0.13072824 -0.53772086 -0.29359743 0.030694189 -0.6645526 0.09939335 -0.29753235 -0.8104251 -0.35071304 -0.029313918 0.22917981 0.124885984 0.63790613 -0.05386692 0.25083217 0.131261 -0.3414088 -0.5362827 -0.0018905122 0.001178041 -0.34469226 0.05083724 0.12846062 0.28611034 0.38183498 -0.6737167 -0.27762616 -0.52820325 0.101335175 -0.12650119 0.08929549 -0.112658635 -0.84155643 0.14802742 0.041338295 0.042102497 -0.3902394 -0.07387686 0.8416045 0.16436669 0.68021065 -0.28581595 0.29428354 -0.42302704 -0.29492512 0.42950597 -0.28154778 -0.041689377 -0.2250534 -0.34564894 0.08833964 -0.2062106 -0.3697388 -0.21001187 -0.73286563 -0.7443154 0.4666385 0.31312373
5bd7a5c312b2b4c8f05e20da971df7add381f0a6 0.04959034 -0.12731443 0.13931772 0.058186684 0.4942847 -0.08929823 -0.091705084 -0.72495764 -0.417633 -0.08137665 -0.5347297 -0.03245871 -0.5210287 -0.312677 -0.07799323 -0.0016169114 0.043004 0.13754387 0.53546864 -0.6976128 0.5183135 0.03019867 -0.46672645 -0.3055041 0.06543482 0.16100256 -0.25374267 0.14794084 0.4748216 0.1792738 0.15177841 -0.15107484 0.24225162 -0.52936035 0.06751494 0.37563446 0.010278526 -0.016818643 -0.74848056 -0.043045886 0.23811823 -0.0222911 -0.082484104 0.5132321 0.5242292 0.0744781 0.4683045 -0.18754932 0.27999178 -0.3699863 0.17677611 0.39482015 -0.2724169 -0.13289012 -0.1355242 -0.44883433 -0.14614211 -0.31397045 0.014578086 -0.09962938 -0.13816732 -0.6883936 0.23163462 0.7611607
dc2f69a535cd12ed1dfef04a03da5ff908ce0903 -0.01969761 -0.27816036 0.24407712 0.44486803 0.79282844 0.015374607 -0.052638944 -0.6518874 -0.28063688 -0.22922109 -0.23556629 -0.13648044 -0.6746486 -0.7699917 -0.0306465 0.0459558 -0.0376553 -0.14871535 0.54857 -0.5871313 0.22919911 -0.1950284 -0.50441784 -0.53747773 0.09164251 -0.20593907 -0.41919482 0.16225334 0.15486339 0.00482429 0.12282381 -0.27717438 0.3897192 -0.41473016 0.003464781 0.08329373 0.042736527 -0.022105549 -0.8384606 0.17813058 -0.13222298 -0.16284339 -0.048299972 0.19100598 0.43171525 0.05964492 -0.26303968 -0.2747578 -0.1779779 -0.30278137 0.006560004 0.39583343 -0.05565421 -0.05727002 -0.17120215 -0.07323503 -0.120668404 -0.22616583 -0.47708037 -0.23057756 -0.27421778 -0.22706114 -0.22542022 0.022744771
b9f4f1f15eb8dd4ab76d2acd5f3c5ca5bc465dfa -0.10259533 -0.14281473 0.036759123 -0.2523577 0.36584687 -0.8530124 0.14279546 -0.4411344 0.21374148 -0.20559767 0.3630537 -0.17218933 -0.67638654 -0.38455313 0.21983352 0.0034779136 -0.6479465 0.08931759 -0.13588168 0.26951355 0.8828774 0.1043105 -0.15821652 -0.0034853406 -0.39869982 -0.24781764 -0.3731971 0.069278434 -0.26123673 -0.008592544 0.04359625 0.13779917 -0.03693408 -0.06131041 0.017061036 -0.3769409 -0.17775759 0.1105529 0.23688208 -0.011204554 0.2959802 0.109493695 -0.3784786 0.12027541 0.09918 -0.053677104 0.1021695 0.027739095 0.48338205 0.07827258 0.016171902 0.16842984 0.17266813 0.287051 0.119883865 0.24249 -0.1346054 0.20961127 -0.074768625 0.10392874 -0.4077586 0.2330348 0.14768596 0.22165336
6e7c5c84ec6711abf19a18d81c18d780e92adc0d -0.07246367 0.008595088 0.13363476 0.26951393 0.33539528 -0.1313992 -0.13405272 -0.66084015 -0.37064582 -0.10815367 -0.15530841 -0.053115334 -0.3408375 -0.40983102 -0.29988444 -0.44357157 0.28550684 0.09133944 0.43926108 -0.9502624 0.5580951 0.17562965 -0.23493147 -0.2759555 -0.16104671 0.27480373 -0.15301849 0.19061014 0.3893349 0.034709815 -0.31380013 -0.08704466 0.29345518 -0.72307134 0.2252555 0.45717725 0.19137758 -0.26026762 -0.5260717 -0.11248434 0.22754163 -0.0077244714 -0.36448926 0.5395527 0.5771602 0.08839902 0.2224458 -0.5102948 0.47121438 -0.34341013 0.20979393 0.4154046 -0.24713376 -0.41990048 -0.026418606 -0.30342674 0.17086954 -0.214161 -0.096460015 -0.2180794 0.15653495 -0.7225382 0.09007859 0.4843441
d2ecbd70c6ea65eedc87473a41fa83c74eb0767a 0.2817252 -0.19309576 0.054340314 -0.15554313 0.27708486 -0.89107454 0.19664375 -0.19447236 0.14135851 -0.103706785 0.21373238 -0.027565258 -0.6452499 -0.46640652 -0.30778238 -0.089652084 -0.61742073 0.062317837 -0.16993578 0.25874692 0.69190437 -0.009078081 -0.073063724 0.1268282 -0.206497 -0.09871956 -0.31395683 0.18122496 0.046057485 -0.17275123 0.14194779 0.10623939 0.15563576 -0.26498657 -0.010885976 -0.15551709 -0.03376165 0.17835927 0.23338266 0.2410258 0.081233874 0.12482047 -0.64218193 0.024075383 0.2217244 -0.026370808 0.2675515 -8.276308e-05 0.40735376 -0.020973016 0.09365759 0.04962374 -0.013548346 0.4192567 0.10904518 0.15910837 0.0061221696 0.10801595 -0.30110848 -0.0017263173 -0.40799078 0.20587187 0.40545186 0.21905553
3174d569df7d82f9233d4a1e5a0636a15582f065 0.227147 -0.34439918 -0.1378397 0.28169435 0.25252518 -0.71655715 0.15405108 0.11257182 -0.16727835 -0.3011917 0.1683288 -0.37301272 -0.7552754 -0.021336043 0.00027704204 0.036382817 -0.42466927 -0.35559672 0.40729523 0.12833953 0.53947234 0.2510888 -0.20560174 -0.08477395 -0.3497488 0.15109925 0.15882187 0.07492503 -0.22423516 0.03232904 -0.41079926 0.22555606 0.38021317 -0.17433695 0.32672802 -0.048524044 -0.2733457 -0.48829114 -0.2656231 -0.010916248 0.57452995 -0.20226538 -0.6824762 0.19040439 -0.059871376 -0.10406862 0.10902727 0.30721924 0.0132870795 -0.028237667 0.33858514 -0.033703078 -0.31332615 -0.00033944266 0.62914145 0.18765189 0.3772181 0.3748734 -0.474296 -0.008048705 -0.071493365 0.6703407 -0.04567028 -0.017978737
535344034c58581fd4956c577cd268d679ccab86 -0.0100560775 0.38530567 0.19502835 -0.049177464 0.22462235 -0.27806175 0.2910219 -0.92490655 -0.97121966 -0.025882756 -0.26776206 -0.041147158 -0.23928958 -0.17472304 0.15639672 -0.18286996 0.16122718 -0.022293681 0.41437367 -0.7894185 0.6135948 -0.059283804 -0.5911557 -0.36674723 0.07527192 -0.47944164 -0.14523403 -0.10282497 -0.057717994 0.2856601 0.30695805 -0.011551183 0.75456685 -0.685163 0.17447644 -0.115558654 0.048545785 0.040596224 -0.6685999 -0.32730776 0.44754672 -0.24407919 -0.2171049 0.8475589 0.7170012 0.47889188 0.2879481 -0.46998286 0.4004191 -0.5491122 -0.2749209 0.2240872 -0.100623846 0.14553495 -0.30474362 -0.47690314 0.042838067 -0.33566412 -0.016201153 -0.35764396 -0.22057402 -0.53804654 -0.004551455 0.4266149
d359f63104b4276b3c6e40f74284e876d9be6349 0.16412152 -0.07866853 0.02927807 -0.17360146 0.3777033 -0.8737886 -0.0027790687 -0.061951485 -0.006396159 -0.18031403 0.46125627 -0.22112791 -0.70369077 -0.18377239 0.071837135 -0.12752889 -0.6424665 -0.10932526 -0.0546975 0.07675394 0.7073801 0.2040214 -0.14498062 -0.09551798 -0.28395206 -0.03480704 -0.2937248 0.20253514 -0.15248567 0.09742083 0.40950373 -0.22269908 -0.09334804 -0.18083887 0.07969165 -0.20267446 0.2883998 0.0792771 0.3626597 0.08230811 0.3045227 0.32277393 -0.57237244 0.07282319 0.30001658 0.06727333 -0.037179414 -0.12812237 0.17217241 0.023239762 0.20992576 0.37836796 0.106824726 0.26887658 0.090448976 0.49126586 -0.15388161 -0.121862754 -0.0540621 0.030126287 -0.3528086 0.40334547 0.16594203 0.05384712
46cbf9c90a0051930e85e2a8c89589936e59ade6 -0.07559188 -0.51847124 0.06612385 0.09005372 1.2037356 -0.18418144 -0.2774148 -0.042191956 0.14520742 -0.017996017 -0.477725 -0.32928938 0.04047612 -0.29023594 0.21203393 -0.3730081 -0.16590679 0.06633691 0.09385997 0.12737384 0.6888002 -0.03524214 -0.12586108 -0.008317251 -0.38082635 -0.15744081 -0.028776202 -0.15479968 0.31510198 0.15542434 -0.72279155 0.04896479 0.0034951975 -0.5104897 -0.0044981213 -0.1369396 0.2205348 -0.39467832 -0.36767733 0.4123836 0.24136816 -0.0012716824 -0.40641192 0.06682678 0.27499253 -0.07779408 -0.36458173 -0.40181413 0.6846459 -0.5087776 -0.07670271 -0.112798564 0.0004417074 -0.10132048 -0.63479733 0.8171412 -0.10136387 -0.30569398 0.25721428 -1.0709987 -0.065513305 0.27996814 0.2391068 0.38875428
4f97413f915af2e9956fc6344e5ae6af6255d66e -0.035160232 -0.16664204 0.2736763 0.19135514 0.7169646 -0.09752687 -0.24353933 -0.83082324 -0.4866378 -0.16111407 -0.4123699 -0.036785062 -0.3909411 -0.39482585 0.24763513 0.0024344404 0.16868658 -0.0001264464 0.6531579 -0.54380655 0.36701992 0.21721055 -0.41551736 -0.59784245 -0.06685098 0.21981122 0.01917833 0.2593677 0.1569329 -0.021940265 0.20653291 -0.15928833 0.5507373 -0.9385696 0.0334313 0.18288131 0.20500708 0.06399602 -0.7038574 0.05311041 0.24824712 0.36398727 -0.1896806 0.4372939 0.71269095 0.009565382 0.17342262 -0.11686023 0.28298664 0.005756272 -0.11373355 0.47760832 -0.16910939 -0.48425737 -0.3945317 -0.4117428 0.20672666 -0.4754757 0.2260097 0.020498058 -0.24453846 -0.47623566 0.109304585 0.41559783
f64c4693d806781f2b6ee80a34b23b6771f738af 0.2226955 -0.51788324 -0.40081328 0.07152883 0.5328044 0.15828241 -0.037118223 0.005633663 -0.3877154 0.339202 -0.8284299 0.058776736 0.008278226 -0.33953846 0.32836923 0.47283757 -0.4628406 0.31241214 -0.32309785 -0.0066212937 0.115776345 0.10935589 -0.30038342 -0.17197593 0.15779796 -0.07161574 0.025886286 -0.2792839 0.38566676 -0.5138028 -0.65900534 0.3224332 0.33369237 -0.4927457 -0.14891475 -0.11827774 0.35190392 -0.8927195 -0.14929245 -0.10480287 0.2463564 -0.044551864 -0.12833644 0.38318223 0.41475835 0.21798743 0.08537124 -0.02596082 0.41450572 0.061797116 0.051123872 0.44221014 -0.46248332 0.20625702 0.20217867 0.5364364 0.23327594 -0.41745028 0.20997865 -0.123521045 -0.5032104 0.17541681 0.15635191 -0.37991577
1b385c69813dc0c704b1bbb1384f9d564dce7aca -0.036178526 -0.07281636 0.3726697 0.05810329 -0.1576334 -0.48567137 0.49356863 -0.3983851 -0.97170144 -0.44938806 -0.11869419 0.57345575 -0.5086659 -0.33810565 0.46220562 -0.60293704 -0.18868394 -0.0048689907 0.7055247 0.22475444 0.37733284 0.22335556 -0.52712965 0.32287765 -0.13349086 0.14751087 -0.49331906 -0.3633487 0.28216738 -0.8444009 -0.16002467 0.32416576 0.0056040757 0.3955069 0.029889563 -0.37571967 0.024381638 -0.1200557 -0.6869564 -0.14488763 -0.4778072 0.54455894 0.3127446 0.40177625 0.19677132 0.39766857 0.04567014 -0.20219614 0.028312441 0.28071067 -0.15212788 0.19428587 -0.25812295 -0.16736956 0.362321 0.39309242 0.007858346 0.29715154 0.2765488 -0.647443 0.16499153 -0.028339572 0.66826814 0.33962667
9643762dec5e81afeaf6d20812170f067d7bc52a 0.22063687 -0.28861699 0.07197475 -0.14803752 0.20656872 -0.8268893 0.12534481 -0.30769 0.019232415 -0.115283735 0.33737576 0.1514043 -0.7197913 -0.6006726 -0.117309935 0.0045841327 -0.5138521 -0.11243402 -0.28253302 0.32873413 0.59078836 0.15207504 -0.64019096 -0.15351309 -0.03205668 0.23629652 -0.17001547 0.14530708 -0.29982668 -0.043155592 0.15047474 0.26000327 0.08515077 -0.085342996 -0.02997542 -0.22917236 0.019600457 0.08448796 0.29720202 0.12768103 0.20967224 0.08757824 -0.49449018 -0.1812812 0.32797277 -0.19072185 0.15695812 0.2727387 0.21250808 0.056075986 0.10972876 -0.099408604 0.22660239 0.2733168 -0.12144097 -0.0014989122 -0.053903807 -0.109000266 0.004421756 -0.13194333 -0.48025295 0.37526292 0.4566812 0.2588512
4b5ffea1fcbf0c4d5075404c4e94f77ca2a8ea11 0.1879902 0.34263194 -0.19848526 -0.15301715 0.32641634 -0.29948524 0.21471001 -0.4328051 -0.06939935 0.208054 -0.0039931685 0.2322483 -0.4479459 -0.45515394 -0.053893507 0.5101393 0.110652275 0.37065783 0.4514054 -0.19517118 0.2820978 0.08492994 -0.22025853 -0.39413926 -0.13833423 -0.34860218 -0.18281266 -0.4029587 0.43223685 -0.16354586 -0.07242169 -0.35223365 -0.364669 -0.36431074 0.09268504 0.18710019 0.05794242 -0.4434116 -0.55733037 0.28111508 0.39709765 0.080970526 -0.09743124 0.10995721 0.30193466 -0.103046335 0.10258221 -0.6809454 -0.0298326 0.0055442043 0.17926265 -0.10274874 0.34572458 -0.3060209 0.20763321 0.015646938 -0.59255344 -0.6667043 -0.13516222 0.21835656 -0.06358378 -0.24549274 0.3817637 -0.106067546
f58928b5ff3743d4b8d9132e9a016cb9a3c83f9d -0.1354892 -0.102104455 0.3287907 0.13913333 -0.108476914 -0.62363905 0.37500486 -0.084215865 -1.1099708 -0.39249933 -0.025785353 0.5587399 -0.3697785 -0.3031645 0.44545287 -0.53156763 -0.2115514 0.026299594 0.35006908 0.06472044 0.67906165 0.13098048 -0.70309615 0.45005506 0.059317008 0.042304106 -0.08101034 -0.13926029 0.40544254 -0.5937386 -0.17427489 0.051540386 0.0028829891 0.41616768 0.20149876 -0.18005799 0.13046163 -0.3710757 -0.7652036 0.116622895 -0.5331471 0.47868606 0.15101434 0.31957892 0.19416465 0.4806523 0.192353 -0.15933642 0.21480605 0.16127075 -0.27240965 0.27682292 -0.13288738 -0.321552 0.4293447 0.5384074 -0.2465997 0.19486769 0.3668703 -0.32301745 0.22923186 0.05965357 1.106397 0.42559224
ffeaaaee30d9c0ae3ba2b3a802758f0f19f4607a 0.095719635 0.14838684 -0.17604655 0.16445851 0.5397725 -0.36797568 -0.14111029 -0.4641384 -0.41460785 0.0347123 -0.13034414 -0.36811715 -0.033817537 -0.2851222 0.094892494 0.08736818 -0.20579304 0.024847044 0.52806604 -0.49383903 0.5776432 0.28493986 -0.50898165 -0.24371375 0.2231499 0.08408985 -0.2814701 0.34168434 0.61301 0.3216045 -0.022041798 -0.36124024 0.17492317 -0.6433774 0.3217503 0.13004571 0.05024094 -0.14804047 -0.8581483 -0.07154569 0.5898468 0.16310173 -0.07266502 0.53474474 0.43399867 -0.022810344 0.7833784 -0.11873761 0.26692593 -0.29106495 -0.041162506 0.46550396 0.0042399387 -0.41908172 -0.49584347 -0.2928083 -0.1434307 -0.35907763 -0.1349382 -0.21409278 0.10865379 -0.8962668 0.14653562 0.32310972
378a8b113aed7ba5476bd2524f035a5aeed3a7f7 0.39359778 -0.6438809 0.1720148 -0.56082314 0.2743161 0.1528853 -0.28169373 0.054722548 -0.81784564 0.05611877 0.045712218 -0.23411517 -0.36776218 -0.16997145 0.11455975 -0.40679273 -0.33916932 0.029893307 -0.16606815 0.28214398 0.2326783 0.22315963 -0.5071808 -0.11684125 -0.50311446 -0.07855721 -0.3205839 0.430616 0.017635217 -0.38222626 -0.010760893 -0.014446139 0.13446628 0.0046308283 -0.06461558 0.0074110804 0.057090286 0.031529855 -0.26321277 0.2216172 0.3104691 0.090319104 -0.5092709 0.114000246 0.02354513 -0.30540067 0.35764655 0.28781077 0.03055593 -0.66613734 -0.068302505 -0.48722473 0.09436216 -0.35118937 -0.040895287 0.6841733 0.3430007 0.14790763 -0.064198434 0.006909047 0.29438657 -0.6429829 -0.040955998 0.11245575
0288307da6da2ed727d455a31578dc567a7ba735 0.2772521 0.13637906 -0.5028848 -0.20315292 0.36934736 -0.5981913 -0.026136182 -0.35510176 -0.28957823 -0.57835126 0.48459604 0.30696085 -0.38432157 0.016857475 0.27988735 -0.29871255 -0.7851998 0.06127511 -0.24152303 0.021890927 0.37820628 0.3940721 -0.6166579 -0.20319992 -0.60564446 -0.20611729 0.12802136 0.23442394 -0.28816777 0.061089218 0.011579064 0.1558461 -0.09377025 -0.33974904 0.033898268 -0.22493862 -0.060848165 0.14321221 -0.09711937 -0.05742195 0.19918041 -0.3104013 -0.5475885 0.14945216 0.18617931 -0.13358259 -0.35470748 0.056149766 0.1620595 -0.06322211 0.028184028 0.44373018 0.057417616 0.24106146 0.24384786 0.03939138 0.1449174 0.6220919 -0.12171723 0.16334043 -0.15582143 0.66268396 0.185085 0.17665547
14c7f7385db605fb8d1c311fe3f6cb804846bce7 0.34542277 -0.19116877 0.19708452 0.07969135 -0.1855355 -0.525347 -0.100636035 -0.22242928 -0.18441938 -0.4189257 0.43569085 0.18739238 -0.8349183 -0.41041782 -0.09942963 -0.033749584 0.09993321 0.010419628 0.33309224 -0.17072003 -0.1086931 0.58027565 -0.42157024 0.0035407424 -0.32871643 -0.12457272 -0.11888744 -0.13057892 0.37717226 -0.13817285 0.32749242 0.38940904 0.25276798 -0.5346214 -0.028024338 -0.5885973 0.16675946 0.043697357 -0.3587316 -0.13771053 -0.35100585 0.09552849 -0.65241766 0.07170704 0.15625262 0.0717322 -0.66012865 0.57320374 -0.19791268 -0.14222932 0.4629492 -0.10801478 -0.088011675 -0.09609105 -0.04415849 0.3256804 0.14504175 0.35370785 0.5729932 -0.1715128 -0.5035264 0.14316522 -0.0051087793 -0.039920323
410e985f538b70fc9695fce88e75213d396fa05f -0.06411245 -0.42245468 -0.24955134 0.083075926 0.10708281 -0.4878988 0.4732796 0.15718096 0.48812956 -0.09875337 0.36881253 -0.18084803 -0.27751467 0.019226953 -0.023330674 -0.7440883 0.17890908 0.01586539 0.012650591 0.037334554 0.55051315 0.623656 -0.62211144 0.36483356 -0.30448088 -0.48322672 -0.30888397 0.009580862 -0.20419699 -0.013405729 0.11319119 0.20652558 0.48524103 -0.57736325 -0.53439826 -0.13622282 0.264086 -0.17293365 -0.30895197 0.06172788 0.52707905 -0.108966194 -0.25688845 0.6215811 0.059383642 -0.09478106 0.39054322 0.29076535 -0.41031238 -0.049458392 -0.07857384 0.30384046 0.3180092 -0.12212137 0.2180322 0.24058616 -0.05717767 0.118780226 0.6243625 -0.4702019 -0.07522323 0.31992364 0.3988246 0.058552157
782f6ba791ff0dc18f33294f7e277401ca325fea 0.26377422 -0.24932623 -0.48381972 -0.09645277 0.020128686 0.36155447 0.32003146 0.11004571 -0.70229036 0.25942016 -0.08846244 -0.19449845 -0.5189128 -0.38268852 0.32331473 0.3329322 -0.35083926 0.79524064 -0.16618337 0.16751863 0.49644065 -0.05000532 -0.045642503 -0.10437976 -0.3175824 0.12614971 -0.0004920152 -0.24936353 0.34512258 -0.18536165 -0.175588 -0.1016184 -0.12955202 -0.58909434 -0.008891463 0.102035984 0.13827044 -0.9706473 0.09307764 -0.44458833 0.35094756 0.15555358 -0.11500156 0.26016715 0.31398475 -0.5379316 0.18012372 -0.10587895 0.17239185 0.12643346 -0.12018929 0.8116351 0.27288845 0.38621622 0.135203 0.23559476 -0.08396745 -0.40983504 -0.18492281 -0.08692211 -0.48056555 0.31880134 0.45056698 -0.33977666
bf91b8d5077ad0f243ec86612e8084196647c68c 0.10880726 -0.19309632 -0.2531566 0.10549787 0.6078377 -0.9482605 0.40651608 -0.6695936 0.14871937 -0.35007802 -0.00045612344 -0.31906953 -0.6566783 -0.2972769 0.08514365 -0.02530576 -0.30184004 0.044459492 -0.30032733 0.24210478 0.61914146 0.22135662 0.09330449 0.022674205 -0.3566863 -0.1539093 -0.40319297 -0.09202757 -0.0043062028 -0.2668653 0.1551631 0.32653388 0.09463475 -0.33286572 0.097802065 -0.3014124 0.0015353569 0.117951326 0.5054491 0.090907484 0.19810261 0.043310728 -0.35670042 -0.17501158 0.1612755 -0.08203892 0.28402272 0.12748843 0.3116492 -0.11285785 0.008989884 0.117228575 0.11097162 0.42438728 0.17874166 0.46589604 -0.04759826 -0.053763863 -0.33683532 0.00058903056 -0.25479242 0.07235102 0.3003029 0.18536945
8fa8c22df05f0a230e621f39436b7cd0abcc5e23 0.41738236 -0.3998549 -0.17801401 -0.156596 0.10676371 -1.0175219 0.47245318 -0.35144225 0.18881819 -0.5383729 0.06437464 -0.11727552 -0.70692664 -0.2675421 0.09489164 0.14911617 -0.36220723 0.056653842 -0.4090009 0.43464598 0.65424824 0.19375049 0.07577615 0.20543383 -0.20074761 0.18376137 -0.49069595 -0.16983147 -0.030971779 -0.20292187 0.25466046 0.11367023 0.06477986 -0.3700738 0.1734443 -0.3118729 0.13989508 0.21763317 0.3293647 0.036324527 0.24024737 0.31731147 -0.49949184 0.32071534 0.27753592 -0.058451526 0.25706524 -0.09570938 0.37095046 0.06399268 -0.14708541 0.04359467 -0.0037266247 0.2298022 0.33621982 0.16078988 -0.043024704 0.040831074 -0.28270388 -0.16599068 -0.33776706 0.22392482 0.23838785 0.24542496
5b92175842349e7f3ca775866afa90c9902fec4d 0.035072196 -0.508529 -0.45444787 0.4934304 1.0749657 -0.12669541 -0.08632426 -0.0545465 0.027658146 0.04174712 -0.6519465 -0.00081176654 -0.083018914 -0.14913066 0.26518998 -0.08896977 -0.06317797 0.055830568 0.10954946 0.041755714 0.30807257 0.17218632 -0.1407893 -0.11504052 -0.48114693 -0.12335655 0.12812029 -0.17038833 -0.10967778 -0.2920529 -0.2362579 0.49984068 -0.13659158 -0.56514204 -0.39971125 -0.16422544 -0.20835136 -0.56119967 -0.19711442 0.063874185 0.6149941 -0.16293634 -0.63364625 0.16793966 -0.013909896 -0.17965874 -0.73632854 -0.028245362 0.36573493 -0.31789038 0.24146824 -0.21473877 -0.25470456 0.122302845 -0.029932821 0.68668187 0.08139926 0.020818548 0.21837705 -0.20828974 -0.00014777978 0.033202954 0.03677439 0.5535043
4a7aa9910061e2497e688943cbeb9d1d0122a3f7 -0.08951444 -0.15628234 -0.6328906 0.016024766 0.07380427 0.5991394 0.25143054 0.048897304 -0.30333874 0.12221599 0.002282581 0.12065324 -0.62144524 -0.60311383 0.21942285 0.18102561 0.05388807 0.4231025 -0.038855925 -0.13529103 0.60824364 0.18253894 -0.4552009 -0.17728636 0.13121237 0.2086916 -0.058738016 -0.41191795 0.4404591 -0.12217426 -0.11050386 -0.19877048 0.14262761 -0.1801263 -0.09116919 0.15267241 0.4352567 -0.8107329 -0.3042933 0.2141239 0.33876303 0.36502627 0.29812628 0.27264467 0.65543526 -0.38208133 -0.6095495 0.0012715852 0.15729742 -0.012978472 -0.35590118 0.7053481 -0.30710846 0.22823174 0.065068275 0.20069821 -0.13919804 -0.2033576 -0.25974536 0.23477441 -0.29983905 -0.34018758 0.49292558 -0.370775
e3db1b22766197115acbea239c5afb31643036ed 0.03824075 -0.42424494 -0.0966954 0.22446369 1.1665151 -0.112672836 -0.18960418 -0.097517684 -0.05355712 -0.0016637417 -0.2704095 -0.29280826 -0.40432987 -0.24667881 0.22479299 0.02124717 0.11358949 -0.060705435 0.09272968 0.33519563 0.6467593 0.22632049 -0.16318028 -0.148296 -0.60256606 0.16438606 0.098318405 -0.13977055 0.35697645 0.1833638 -0.88384336 0.2187655 0.035772048 -0.44577563 0.053118818 -0.062462997 0.111912906 -0.17348152 -0.5396678 0.3008654 0.33815047 -0.17470883 -0.28147087 0.09315856 0.22036919 -0.17832863 -0.2555391 -0.31553453 0.6952578 -0.37972158 -0.28358814 -0.22925586 -0.20662577 -0.01633911 -0.70598143 0.40624583 0.07662521 -0.3490084 0.1346356 -0.9659493 -0.013507673 0.4660367 0.24681062 0.37930015
2d4da223a9a3b0aaaaeb2c50a691ff3f7376762d 0.14379203 -0.56889343 -0.46585438 0.16334505 0.7123891 0.37962422 0.16604161 0.21318144 -0.5400543 0.35041454 -0.53943515 -0.11794334 -0.2902481 -0.43500447 0.37425047 0.37403738 -0.4362043 0.52025473 -0.29192793 -0.05840217 0.24677241 0.039106686 -0.17631415 0.03504474 0.14969659 0.036750063 0.08035692 -0.09357572 0.2782446 -0.45014703 -0.46055374 0.5520098 0.028802069 -0.48750052 -0.09764475 -0.035180643 0.27922186 -0.6544551 -0.21177156 0.08355867 0.018326957 -0.07903583 0.013393662 0.607802 0.6674169 0.1369184 0.25347576 -0.105375655 0.33409244 0.094651066 -0.104721196 0.50154746 -0.5593372 0.2380516 0.1090347 0.099641375 0.37443057 -0.13023776 0.25572228 -0.31504932 -0.73927087 0.020933552 0.43180168 -0.574643
cde15d4fec5afaaf7e49e8168e04931bfc62054d 0.20826402 -0.5701407 -0.1655008 0.020763792 -0.041111574 -0.111388385 -0.082877256 -0.06410464 -0.017962568 -0.152644 0.36371225 -0.33611083 -0.5700256 0.13690773 0.3389552 -0.8223631 0.31893608 0.10160889 0.34131488 0.016136376 0.46049315 0.24461496 -0.9421358 0.08394269 -0.34253618 -0.4113433 -0.39358672 -0.1206972 0.17111577 -0.10578786 0.13262442 0.34179792 0.17261803 -0.039574984 0.17619656 -0.6447824 0.033565074 -0.008905132 0.22227041 -0.16129574 0.5165916 -0.10885476 -0.102495804 0.0079841055 0.6190072 -0.007370247 -0.108704604 0.0777859 0.40591544 0.2626201 0.6576711 0.08548245 -0.2199791 0.04312233 0.42903334 0.2768195 0.16078812 0.36060095 0.11143572 -0.65986985 -0.31330895 -0.15458632 -0.25185493 0.11316541
9e13ecf2f36e2f00cbcf8e27e94fd6810928fe9e -0.124769256 -0.17688674 0.17573965 0.062784076 0.049175646 -0.73856544 0.25962332 -0.23241441 -0.9705909 -0.36598188 -0.20554416 0.7714758 -0.2517604 -0.34713623 0.43607458 -0.44644052 -0.18974768 0.0010166726 0.46896434 0.22625284 0.45685366 0.12192196 -0.7752374 0.3156165 -0.1381697 0.25551286 -0.10235594 -0.41031963 0.569069 -0.36116782 -0.018046774 0.14261779 -0.14990456 0.3790544 0.15210764 -0.3639919 0.23896216 -0.22462223 -0.6682186 -0.0074167834 -0.36232117 0.62665737 0.22231919 0.47513863 0.14121646 0.41101018 0.14853176 -0.13062224 0.07040017 0.11605334 -0.39343932 0.26695102 -0.26909065 -0.33622706 0.36864424 0.39991525 -0.16964516 0.23118147 0.018427035 -0.3302927 0.3300074 0.049918547 0.8990972 0.4445381
a74661ab812aeb4de9deb072a7b4c7462c26b8fc 0.14660138 -0.17863482 -0.76313776 -0.050418843 0.4418829 0.47365355 0.007670839 0.07520258 -0.7384675 0.6259353 0.059013486 -0.117738485 -0.09332156 -0.483901 0.27765933 0.68469006 -0.5295432 0.52446556 -0.040092085 -0.11572157 0.5174794 -0.13612139 -0.122554235 0.12744519 -0.19944833 -0.10742459 -0.091743484 -0.28922948 0.2922041 -0.1251756 -0.34179205 0.23095128 0.49050686 -0.3914965 -0.024148507 -0.07941362 0.22139007 -0.8009966 -0.14280558 -0.19227844 -0.022005923 0.27399838 -0.12732491 0.4476395 0.44951996 -0.41316572 0.28959993 -0.09808341 0.27930778 -0.48814675 -0.27674693 0.40480104 -0.06689524 0.1387843 0.117964014 0.6705591 0.20533717 -0.0021920796 0.6194241 -0.445962 -0.59474576 0.063302025 0.3355789 -0.48771247
44dbbee0456a1224b3450afa67f107d7a8b37472 -0.11869368 -0.20618005 0.051216703 -0.053326797 -0.25560477 -0.7832402 0.22269242 -0.2848035 -1.1022118 -0.10171751 -0.1266176 0.032106534 -0.36182973 0.03688985 0.3855571 -0.3645721 -0.18405792 0.18023731 0.55538964 0.21290134 0.73033506 0.10568201 -0.7772668 0.31526726 0.33752462 0.013736042 -0.13627277 -0.12508123 0.4950286 -0.6941849 0.0006458914 0.085746385 -0.23630945 0.2708848 0.3964326 -0.34309062 0.22617471 -0.20908354 -0.18213826 0.26908633 -0.34087044 0.37171185 0.19457276 -0.010593201 0.30148536 0.56473315 -0.23207955 0.1264979 -0.009018959 -0.036503498 -0.19506837 0.4362996 0.053805158 -0.78568953 -0.037869345 0.4615081 -0.11069389 -0.060292855 0.21261556 0.039378542 0.049296644 -0.18545452 1.2256831 0.553754
82c22b0f34e1a9e5076c89ee28e7dbf8178dfa78 -0.18134066 -0.31095415 -0.1668726 0.17471738 0.5948121 -0.10331797 0.107959256 -0.47721493 -0.5280994 0.17231525 -0.6828082 -0.13086635 -0.44877565 -0.47107032 -0.29495785 -0.2284926 0.021640874 -0.07715097 0.5787929 -0.36753696 0.41261467 -0.23616533 -0.3944202 -0.09973122 0.04862397 0.050451793 -0.5098267 0.20106478 0.23492818 0.08808035 0.33934736 -0.3500273 0.44350094 -0.23060152 -0.17976485 0.14491673 -0.103783876 -0.41537142 -0.908182 0.03514737 0.31912476 0.18153457 0.30443132 0.05553715 0.19375563 -0.24948025 0.33044896 -0.5983447 -0.19826569 -0.2694706 0.03185847 0.014056681 0.009014816 -0.3632758 -0.07057844 -0.218939 0.20009379 -0.53668743 -0.13237439 0.15216298 -0.48721904 0.006447523 0.18847488 0.32701632
895b728f2b652bcf9ca033257a666afbe5c3a4ed 0.3843827 -0.40545854 -0.0718795 -0.22744942 0.1457538 -0.8628336 0.5288841 -0.1601588 0.039185032 -0.3791935 0.12584084 -0.15152605 -0.5686147 -0.5063419 0.059753925 0.08597065 -0.3972415 -0.22509857 -0.35603046 0.29320994 0.6080226 0.19839844 0.07607656 0.12984447 -0.23924108 0.26261038 -0.5391503 -0.057408698 -0.0379175 -0.1977191 0.19021258 0.03598381 0.20094568 -0.4981378 0.05870111 -0.31727818 0.1019337 0.13809013 0.46093816 0.02182118 0.37920454 0.4344178 -0.47725955 0.3679015 0.30843195 -0.023595706 0.126803 0.005817643 0.45016992 -0.00993743 -0.16743727 -0.050222002 -0.07331777 0.4542207 0.46495032 0.075314835 -0.11269335 0.09406362 -0.45410138 -0.29221353 -0.20554864 0.2525051 0.34143513 0.45490283
470a000268a7a9fa6e7199b5504f4bc465b0b5ef 0.26742715 -0.6727712 0.020878173 0.538187 1.2054552 -0.084042795 -0.357158 -0.08870128 -0.061183207 -0.002270725 -0.5070919 0.12142486 -0.2409477 -0.42252418 0.27460027 -0.17042807 -0.052170455 0.0063711153 -0.16741309 0.11340366 0.49873868 0.09741472 0.0456305 -0.12852079 -0.33620152 -0.105384424 0.12937596 -0.056636687 0.16825798 0.16121924 -0.5988579 0.26180676 0.016250174 -0.639416 0.042731144 0.032511692 0.24163607 -0.34129915 -0.55547976 0.32730138 0.19819362 -0.0069282074 -0.07447983 0.018770237 0.15064521 -0.083384596 -0.31652442 -0.4058989 0.70129424 -0.57554 -0.25909698 -0.13991058 -0.121996604 0.44583392 -0.28063723 0.46835288 0.09785915 -0.26316723 0.4077347 -1.0275533 0.0102697825 0.25602445 0.09677511 0.27135056
f07ba96a4bd87e8c0c01e562c87d7a72866facf5 0.045096572 -0.25586426 -0.40348405 -0.460111 0.21150929 0.3760056 -0.19427295 0.31871748 -0.7608397 0.1936309 -0.5063326 0.31027475 -0.31038383 -0.30923876 0.20253786 0.48308608 -0.27366215 0.28024945 -0.12125709 -0.10697017 0.5802 0.01649958 -0.19844802 0.15399855 -0.098674215 0.2259261 -0.11741008 -0.2544875 0.47528902 -0.57273185 0.019348273 0.020152275 -0.1807901 -0.3199387 -0.008323823 -0.19355658 0.21097668 -0.9807125 -0.027952114 -0.40050152 0.3037725 -0.088357635 0.36715633 0.2536925 0.6486236 -0.4786841 -0.05858209 -0.3585429 0.1628201 -0.046980873 -0.027308527 0.77878994 -0.3506008 0.36993027 -0.18946554 0.3513339 0.18528128 -0.32224745 0.16227674 -0.13095346 -0.00988259 0.12329079 0.5264699 0.06353719
8ddd752d1e59f580087f06e791a6c193db766d24 0.22812688 -0.38832927 -0.10026121 -0.18637131 0.22750121 -0.9566146 0.4674271 -0.2914552 0.056816943 -0.36163482 0.15325542 -0.21133456 -0.68814766 -0.22299334 0.07515133 0.07611292 -0.5710655 -0.29370037 -0.2803792 0.26819468 0.4883771 0.1522304 -0.015148794 0.13594224 -0.37811324 0.13670033 -0.58040875 0.061039966 0.1259849 -0.08329993 0.13267122 0.18335453 0.09645567 -0.2692933 0.036446035 -0.24533409 0.065393545 0.18260549 0.3131189 0.00869939 0.28580347 0.38375735 -0.6294451 0.2809798 0.1650315 -0.034535382 0.20422623 0.11440196 0.31963757 0.023914706 -0.17677286 0.13547055 -0.041505545 0.40137252 0.38577703 0.15495233 -0.10690315 0.06930212 -0.5291465 -0.23691069 -0.4407164 0.29538983 0.32718214 0.49278814
3a6ccffd5df0d235d66ed430a243228518fba3e4 -0.22406459 0.079254545 -0.24868006 -0.029896019 0.28004825 -0.79596037 0.298539 -0.32489148 0.28542787 0.1320194 0.39815524 -0.41708398 -0.9081015 -0.23322299 -0.07281419 -0.12741172 -0.5775692 -0.19078903 -0.20569672 0.42616013 0.7943806 0.20115936 0.049241405 0.1463037 -0.508853 -0.33068675 -0.04368173 -0.037056256 0.31555715 -0.058291625 -0.06322419 0.27024078 0.039699834 -0.22146676 0.20547271 -0.14055626 -0.023207532 0.19605304 0.2335218 0.034044277 0.24611796 0.09710281 -0.51188964 0.20705993 0.02864655 -0.11784507 -0.14534253 -0.16143833 0.5519488 0.13892142 0.050291948 0.1345396 -0.24151625 0.056308713 -0.21101859 0.43600926 -0.07189082 0.18554491 -0.17597798 0.01264026 -0.28455803 0.05580741 0.3340686 0.18864526
ef540cf84eec6438ed9dae56b1ace23e783a4a14 0.44095626 -0.33286184 -0.63807166 0.0029380925 0.6209529 0.22576591 0.030686978 0.26095033 -0.37404248 0.24131754 -0.5262994 -0.07281784 -0.1356628 -0.32728648 0.5107322 0.29164818 -0.7121386 0.4982482 -0.3532054 -0.5914077 0.055710576 0.20287499 -0.14170939 0.0021362794 0.113849856 -0.3123608 0.13093911 -0.23681046 0.33019918 -0.012841562 -0.35165352 0.13592085 -0.06173971 0.34728703 0.042448677 -0.15161519 0.2871263 -0.739438 -0.091199726 -0.21166123 0.19517355 -0.078573085 -0.27682656 0.7253772 0.7589945 0.21699925 0.060588982 -0.055684898 0.113547005 -0.16431575 -0.18518221 0.59211147 -0.2895432 -0.11524321 0.16968878 0.54909784 0.9046942 -0.20958355 0.21780936 -0.46841317 -0.89237523 -0.083162814 0.6720618 -0.2553246
29fdce56d2b0997db393503bdf90596eb3e96f3b -0.065826505 -0.21685222 -0.023502434 0.013947413 -0.08016459 -0.78587735 0.4297438 -0.42379862 -1.1838322 0.1611169 -0.21081254 0.51139873 0.055857297 -0.3285698 0.43406212 -0.25054047 -0.093737476 0.124123864 0.34955242 0.3558922 0.5088489 0.23365247 -0.6916356 0.24348162 -0.27645496 -0.0972756 -0.19216973 -0.15078382 0.42832145 -0.40276268 0.17079893 0.41168067 0.25327513 0.15153229 0.31384212 -0.3097158 0.22760281 -0.27645627 -0.6825328 -0.10023052 -0.5968918 0.33252665 0.31605133 0.17875673 0.025449628 0.53618866 0.3131701 -0.3269198 -0.23368537 0.31341136 -0.24124978 -0.09093788 -0.13428102 -0.37799802 0.31729975 0.64701223 -0.2044046 0.3022313 0.29820168 -0.046256654 -0.14207104 -0.16638906 0.39202985 0.72063375
107b89bbeac05c19369ad1eae9df04f0c2beb52e 0.17453407 0.1982055 -0.04423411 0.042424288 0.45298395 -0.035875376 -0.18269782 -0.573517 -0.20455225 -0.05663127 -0.59332466 -0.031148864 -0.41173348 -0.61479896 0.022021873 0.10420816 0.003026538 0.11013233 0.9198156 -0.4026916 0.25184122 0.09136077 -0.39668906 -0.40905458 -0.06988313 -0.30173677 -0.30434176 -0.09868049 0.39738554 0.15049937 0.17390582 -0.5919045 0.24807408 -0.46687195 0.20053208 0.16288611 -0.03435717 0.050474573 -0.75288624 -0.33739978 0.27446312 0.22191246 -0.09343596 0.45802596 0.62091255 0.06932206 0.4126501 -0.35961697 0.2553535 -0.2656749 0.17663902 0.39171177 -0.58715373 -0.44032907 -0.37159774 0.09742346 -0.02808527 -0.48061517 -0.077366926 -0.005689776 -0.08404126 -0.388889 0.101154745 0.625253
de6978f8bc63bcc2d987a357c7340dd6302e11f0 0.01018735 -0.21262121 0.23039159 -0.002311834 0.38226527 -0.7425133 0.08713197 -0.5154742 0.19784454 -0.37382665 0.3538803 -0.20592403 -0.51641047 -0.48630765 0.11595172 -0.2665752 -0.47463182 0.0032873964 -0.3769837 0.09854794 0.5095759 0.32399172 -0.016000595 -0.14950909 -0.24822663 0.048518196 -0.57174784 0.1965882 -0.047167994 -0.199939 -0.061579928 0.15733875 0.07537883 -0.18808708 0.3639992 -0.34594303 -0.31083784 0.14245847 0.33970472 0.25442606 0.021966973 0.07862532 -0.65405655 0.118933715 0.16173624 0.055742558 0.34442446 0.123893335 0.32432228 0.16760427 0.21184476 0.57598525 0.2269148 0.30040222 0.10131101 0.3622137 -0.18177682 0.0720966 -0.3247187 -0.08031125 -0.45298034 0.13039736 0.24145035 0.25840148
b6653272f97c39cbd4e571b3b19c66da375dddea 0.015625305 -0.16709055 0.24298862 -0.055342946 0.027372288 -0.671727 -0.23376237 0.10181366 0.12902218 0.3494038 0.5505879 0.13166411 -0.60815775 0.017244592 0.353705 -0.27155766 -0.741189 0.038911927 -0.21074496 0.37666172 0.77957404 0.18002456 -0.42355672 -0.18565531 -0.35563985 -0.27092597 -0.28586325 -0.6354977 -0.062050834 0.11688423 -0.14781584 -0.036070902 -0.13599202 -0.18680562 0.17147984 -0.20618103 -0.19976442 -0.34765515 -0.2862447 0.17471462 0.18737614 -0.27939323 -0.36783668 0.48815387 0.24574381 -0.07857163 0.114057384 0.15464497 0.12090171 -0.012706748 0.040451147 -0.18070485 -0.00016100588 0.16731435 0.2405319 0.021055462 0.598242 -0.0017490046 -0.09788294 0.45630372 -0.17459075 0.17707452 -0.12248105 0.31909865
e4758fbb0eb3668493bf65b6678707fe6081e398 0.3433131 0.014305925 0.46374 0.22836414 -0.09112526 -0.7200349 -0.30732813 0.08634981 -0.13415502 -0.48518822 0.21570241 -0.29468352 -0.72175777 -0.17284323 0.124123335 0.07191096 -0.43541598 0.051507197 -0.03291229 -0.07296015 0.68297154 0.41890028 -0.40005484 0.29568672 -0.30104172 -0.34721622 -0.54869485 0.049355004 -0.24971886 0.26623586 0.08332642 0.6169731 0.3249591 -0.31548035 0.10987714 0.06778484 0.6092445 -0.18444775 -0.8249346 -0.33471984 -0.08699495 0.44602755 -0.42651898 -0.026996901 0.039260846 0.49054754 -0.22594 0.47941327 0.20587459 -0.15694414 0.094227485 0.09721701 -0.58107316 0.3960769 0.08644004 0.40962505 0.09487597 0.08016089 0.1228464 0.4000762 -0.4878854 0.6066839 0.045273148 -0.15808389
da28504c2a9b12bfbf172af2883593f1adf56960 0.09446341 -0.61975026 -0.8458684 -0.04942895 0.6725106 0.23203045 0.36943322 0.06944508 -0.6946288 0.00925699 -0.49621657 0.32793847 -0.15699545 -0.572086 0.13726902 0.36515358 -0.5229283 0.5924944 -0.30603328 -0.4065096 0.6193168 0.1937837 -0.07658543 0.08695505 0.20320426 -0.06819853 0.063853316 -0.2933663 0.12071927 -0.42630804 -0.18560687 -0.08969863 0.19989686 -0.32311156 -0.090578444 0.013533464 0.31138435 -1.0614003 -0.14928648 -0.12763368 0.017332787 0.20986421 0.12220062 0.22350943 0.58792835 0.037945744 -0.057011105 -0.011017593 -0.05467972 -0.07889374 -0.016212149 0.2930917 -0.16965961 0.39166895 -0.18942934 0.44805816 0.3482073 -0.1712701 0.15887314 -0.31323665 -0.586746 0.00064544537 0.3386752 -0.5428362
acae8bb0f160873b40540d006cf21412e31c6fa2 0.67706645 -0.7834815 -0.7596394 -0.024687137 0.59450924 0.60604334 -0.09785815 -0.11059794 -0.21878536 0.45845833 -0.50641894 -0.2790315 -0.016652154 -0.17967993 0.45131162 0.36103666 -0.758697 0.63461685 0.27324384 -0.21838862 0.5601622 0.20102525 -0.2464532 0.2030066 0.051175043 -0.009588036 -0.018323775 -0.060084164 0.5307114 -0.21225642 -0.48511747 0.15151007 0.083491325 0.09278814 -0.034127258 -0.122267835 0.18422608 -0.40673286 -0.32180026 -0.17974465 -0.09500002 0.13458629 0.028593063 0.34621674 0.5722597 0.18795718 0.10899738 0.028791644 0.3005233 -0.082532994 -0.19672556 0.5759192 -0.3224587 0.13255091 -0.020283658 0.22282371 0.33765158 -0.47883672 0.10250384 -0.5262775 -0.63485646 0.34804586 0.26113108 -0.046694096
27557d544c5af5d99ea5e6b743960a12028f5537 0.3508424 -0.4232762 -0.16531761 -0.17270863 0.23001502 -0.93983316 0.43059915 -0.19118744 0.18170144 -0.54856426 0.08127801 -0.4768266 -0.669082 -0.35064027 -0.0041493713 -0.15431757 -0.19546357 0.34521586 -0.183753 0.5019189 0.5786194 0.34228367 0.03502712 0.19996051 -0.030664627 -0.019580103 -0.88763475 0.05111888 -0.20643178 -0.24351592 0.18605766 -0.14290231 0.21245067 -0.59819734 0.29766896 -0.33660603 0.15862589 -0.055009093 0.48594368 -0.113922894 0.013139325 0.34711778 -0.34801126 0.10750157 0.30836767 -0.20510262 0.23238787 0.23674053 0.31807682 0.2520856 -0.18647312 -0.066382036 0.15692843 0.19209804 0.3973383 0.045369003 0.011788778 0.15593922 -0.22042587 -0.39458817 -0.34890464 0.38982764 0.4037789 0.5131388
712cef69130a8866e670069aa5010134534aeb08 -0.077169284 -0.059289195 -0.031065352 0.19491561 0.6588679 0.05900908 0.070138775 -0.6109751 -0.19665699 -0.3308069 -0.006571329 -0.20938592 -0.39902687 -0.40817046 -0.20362268 -0.045026813 -0.10077578 0.08251857 0.5680618 -0.6878512 0.62546885 -0.0137205785 -0.42406666 0.0039091674 0.01901765 -0.22285011 -0.2065987 0.2544407 0.39152282 -0.060525604 0.3416405 -0.28647584 0.2870808 -0.1398942 -0.10346069 0.39610022 0.022065358 -0.2865299 -0.9066935 -0.18646319 0.21824954 0.07786865 -0.16406497 0.46623883 0.7422335 0.125772 0.47634706 -0.377313 0.2818006 -0.24314936 0.19238606 0.5296546 -0.18415308 -0.24842824 -0.34581473 -0.5315452 -0.090117894 -0.40147454 0.21796192 -0.12614493 -0.12839703 -0.68430793 0.064719185 0.43876407
b67a2eeb96c46b8a1d6a7f3c932b92884648abf3 -0.13438867 -0.17013195 -0.014173322 0.19141829 0.5079539 -0.17842996 -0.113794155 -0.5956534 -0.45625803 0.07664568 -0.37162593 -0.31440324 -0.32834196 -0.57248884 0.14171016 -0.14595136 0.08383491 0.06911642 0.6243054 -0.6373359 0.23847656 0.07316446 -0.16888678 -0.17916639 -0.32593313 0.0065284804 -0.33441564 0.2970401 0.299411 0.15979737 0.24218427 -0.42858264 0.28207824 -0.62366873 0.34942308 0.20726547 0.21037859 -0.09449922 -0.88340485 -0.027681269 0.14249614 0.09075874 -0.19265868 0.985937 0.81190485 -0.131299 0.34761462 0.042025387 0.2625681 -0.18391116 -0.14822467 0.45055816 -0.16309412 -0.25540045 -0.15473053 -0.60225344 -0.0024323906 -0.57753307 -0.19346012 -0.03354088 0.013174396 -0.40869984 0.2761786 0.65771514
6d3892363df4f6c4a98a2781fb900fd83fcaf3cb 0.16235352 -0.38954493 -0.7500334 -0.21308333 0.2576933 0.46858966 -0.1604086 0.26837274 -0.53903306 0.43894175 -0.3101849 0.040890746 -0.43449068 -0.5659977 -0.28958276 0.21121636 -0.44492653 0.9160083 -0.12043973 -0.17501938 0.6676218 -0.012153554 -0.34137276 0.1972522 -0.15227549 0.22536466 -0.16958071 -0.3260403 0.29779837 -0.27668765 -0.012755035 0.107680336 -0.09489216 -0.11473948 -0.21177861 -0.10099787 0.19874923 -1.1520429 -0.016170625 -0.1212999 0.22489633 0.38630426 0.013695089 0.26218763 0.32040948 -0.09072305 0.102489546 0.1148038 0.2766868 -0.19739862 0.11743724 0.87185764 -0.049528778 0.16372159 -0.33543876 0.21360973 0.11688227 -0.19374569 0.07939287 -0.5065082 -0.61175334 -0.026280245 0.3934285 -0.12821773
0fb2fd6880682a6e72ed22f402c35dff0fb5f43c 0.48268282 -0.5286325 -0.12574512 -0.2990189 0.01960894 -0.96356356 0.39020243 -0.11440042 -0.018987317 -0.5001479 0.3139771 -0.38418376 -0.6919063 -0.37005335 -0.027369596 -0.012151855 -0.5346627 -0.039350845 -0.41534585 0.20528215 0.5547017 0.20256491 -0.023553098 0.05480143 -0.18209407 0.21419156 -0.6192774 0.08283924 -0.080385976 -0.27718845 0.22347988 -0.15199843 0.0475004 -0.21034357 0.12706104 -0.1856693 0.12074199 0.07827298 0.3518884 -0.07113511 0.18034086 0.31782037 -0.5431864 0.17076027 0.35823342 -0.02652292 0.1411519 0.17872572 0.34867764 -0.060731314 -0.12860979 -0.04376628 -0.2416288 0.12198776 0.2848727 0.16699366 -0.03835685 -0.09155432 -0.43873838 -0.2750218 -0.23601428 0.30305716 0.43815032 0.4320208
e75b3dc2478ab60284d0501f0525e4bb191bb447 0.14137104 -0.70524657 0.0337272 -0.11375255 0.10809749 -0.49647877 0.13204432 -0.011794188 0.09735681 -0.11913191 0.435714 0.16616258 -0.0305865 0.5181288 0.103446856 -0.84491843 0.13973421 0.31990555 -0.1453178 -0.035194155 0.6900451 0.58736265 -0.6570564 0.44639853 -0.47808775 -0.38297963 -0.3950225 0.3088556 0.38336298 -0.09682702 0.3965158 -0.09977523 0.19310825 -0.52845573 -0.28366253 -0.4306125 -0.3036204 -0.16797908 -0.15913169 -0.08000918 0.5503327 0.14850852 -0.21385215 -0.08489505 0.026030134 0.079760015 0.15236826 0.029279966 -0.11740748 0.12573919 0.19187403 0.40090978 -0.10442608 0.15015687 0.25975543 -0.048865017 0.41730613 0.12871204 0.5181851 -0.6284042 -0.057785697 -0.04270792 0.17765866 0.28423908
8d7cc1d1eb631080561972333e8ea59059da78b4 0.20631303 -0.39498445 0.099080294 -0.119013175 0.2199662 -0.86970085 0.19927014 -0.07850732 0.14430372 -0.17586483 0.22565472 -0.14912596 -0.6505579 -0.39634532 0.074940056 -0.09448794 -0.61205417 0.006951613 -0.32414404 0.22975077 0.6449909 0.10590208 -0.13319246 -0.15807407 -0.21651138 -0.015255126 -0.5151636 -0.20374614 -0.24490115 -0.10641879 0.24080575 0.10909828 0.08440841 -0.4609856 0.019676145 -0.38595083 -0.10851116 0.019319963 0.32975972 -0.055475 0.18929514 0.2476142 -0.53703004 0.29016432 0.3221426 -0.03181765 0.2693923 -0.015990762 0.28655145 -0.13113776 -0.14377424 -0.11476343 0.25931078 0.38086447 0.407594 -0.021615975 0.11723609 0.13883579 -0.3116613 -0.06732191 -0.33855933 0.41759542 0.28955582 0.46389675
9945dc84e7f232a41b22f75c2f757aeccb9e9195 -0.20880656 -0.34031162 0.38943043 -0.16912174 -0.59816444 -0.77579427 0.33014968 -0.45305252 -1.245466 -0.0653914 -0.20287088 0.45207432 -0.19116412 -0.3255618 0.31352684 -0.3111332 -0.22396858 0.20537075 0.355358 0.18388149 0.467907 0.13485654 -0.7806176 0.37259275 -0.23198923 -0.23802978 -0.31941682 -0.09412099 0.5400976 -0.35135514 -0.055656724 0.2513922 0.008138538 0.33750868 -0.06433399 -0.3843478 -0.2552285 -0.35791793 -0.24208944 0.1723934 -0.63528633 0.68081254 0.20309652 0.5653552 0.24390016 0.34917587 0.08560316 -0.34749255 0.101534 0.048014272 0.0150216725 0.16085018 -0.14612135 -0.5188015 0.17982882 0.45862132 -0.35718843 -0.10013087 0.13929604 -0.43275252 0.10013199 -0.0842384 0.6926637 0.18477835
f235228831c4d71e14237b51db4920ba9379a582 -0.297432 -0.17171235 0.12906204 0.122841835 -0.018684637 -0.74838674 0.3243689 -0.33860168 -0.84758574 -0.2948555 -0.092519246 0.5098721 -0.14742914 -0.3122508 0.42657834 -0.33813527 -0.14699748 0.12006995 0.61741143 0.3273954 0.3554786 0.1581527 -0.58958125 0.339566 -0.27408302 0.05199127 -0.45681202 -0.2673453 0.4575569 -0.63177156 -0.013891493 0.11906891 -0.20264979 0.31567603 -0.020108864 -0.54582065 -0.088669226 -0.18980342 -0.7767484 -0.11437749 -0.5130226 0.645263 0.015164451 0.40259737 0.18809271 0.682939 0.11304303 -0.17671894 0.036271743 0.05054729 -0.23727165 0.39511263 -0.2617139 -0.33114737 0.5892463 0.44684055 -0.038312826 0.26191348 0.1921147 -0.27573878 0.17488723 -0.09461487 1.0774043 0.19124614
d4aea40e1a87586350a1bafa25f20aab746bab69 0.18005842 -0.24905065 0.1802085 -0.041877452 0.10748322 -0.56896913 -0.054744214 -0.16874246 0.13036184 -0.22606951 0.45185956 -0.23172592 -0.9792283 -0.13828199 0.37783155 -0.26305017 -0.4849512 0.050595697 0.027812852 -0.05721318 0.41770938 0.2685575 -0.0046844245 0.25644737 0.09328936 0.18571478 -0.09562414 -0.024753558 -0.24947107 -0.08609178 0.0549368 0.013824524 -0.16629232 -0.69529843 -0.07939151 -0.07776776 0.25527126 0.20003311 0.020672254 0.14013559 0.12737454 0.43468082 -0.72329646 -0.09709745 0.2948344 0.25555298 0.19931059 -0.009520928 0.20374078 0.037548587 0.24635707 0.060837407 -0.1184862 0.37410846 0.16091877 0.36720416 0.049460825 -0.20224927 0.18945624 0.321226 -0.4104634 0.40850392 0.40937462 0.2204585
1df5105c262c5266a6d875071bfecffbf0f9ae75 0.13912384 -0.2824154 -0.83515334 0.13106164 0.50679153 0.43067533 0.12112078 -0.114339076 -0.3339952 0.20782717 -0.3915722 -0.37620264 -0.30689028 -0.41977477 0.3480097 0.16734089 -0.74498534 0.031145155 -0.11380149 -0.13475986 0.61672175 -0.11773348 -0.34246147 -0.17284177 0.44433436 -0.08113233 0.0011167693 -0.09761444 0.5441798 -0.37167308 -0.49553674 0.39150444 -0.010059017 -0.12588423 -0.0539211 -0.20036264 0.16092288 -0.61840165 -0.18840118 0.06560354 -0.17248039 -0.18176253 0.11310549 0.8058707 0.30155843 -0.05303314 0.29488745 -0.052776545 0.1719374 0.06680763 -0.13716695 0.40651187 -0.34931225 0.37710926 -0.35189784 0.40472728 0.5826674 -0.29765406 0.34934044 -0.4228241 -0.8006077 0.08285173 0.4597232 -0.44360837
624fc18a98d243f1fe92244f0cecab57f9eefad2 0.2975049 -0.51826006 0.20823228 -0.23873964 0.11070657 -0.8713702 0.34979934 -0.37544796 0.108248875 -0.49414486 0.43244973 -0.12660962 -0.7184149 -0.22918497 -0.124888815 0.037282567 -0.1346707 -0.012921188 -0.41083667 0.25372812 0.43149197 0.4759274 -0.115491904 0.1512018 -0.35847393 0.27447104 -0.55034965 -0.0023342415 -0.13365585 -0.37795708 0.07101002 -0.096265435 0.36583188 -0.2594024 0.043358706 -0.40987983 0.2595412 0.13501047 0.5083874 0.0042669647 0.13748486 0.28780034 -0.22618054 0.24544945 0.25867054 0.16344596 0.3025506 0.13259004 0.22650072 0.10322542 -0.24694157 0.036544904 -0.23287441 0.35462528 0.36507082 0.21221003 0.16514125 -0.0782526 -0.48715279 -0.57451236 -0.25385773 -0.0027624217 0.4776419 0.5347716
d4cd2029998f717d89ab0e82127415679b2d98f0 0.5837209 -0.6311444 -0.4020446 -0.010088668 0.70630944 0.4668518 -0.03262186 -0.013327651 -0.57425463 0.46560264 -0.558101 -0.033577897 -0.26536798 -0.44031468 0.45511934 0.24212886 -0.8559665 0.45268133 0.027269948 -0.24857756 0.6655385 0.0126046 -0.09756338 0.09513436 0.1686075 -0.105775364 0.20496707 -0.14273697 0.51758665 -0.122725345 -0.3144129 0.3878713 0.034351133 0.19005029 0.023145745 -0.15751208 0.13342789 -0.6608854 -0.2538358 -0.35597962 0.054092415 0.23945668 -0.19351943 0.05032951 0.49109134 0.104118295 0.08300517 -0.009151907 -0.0057025063 0.05474836 -0.31358802 0.557798 -0.38016415 0.4795678 0.16622269 0.28414425 0.32833588 -0.37838504 -0.061198287 -0.84138775 -0.41615137 0.30624062 0.12859938 -0.37447506
582be93ba00d06ff85cc961d6bde034168aeb2f4 -0.5600027 -0.15522455 -0.23335819 -0.48022342 0.18486638 -0.3408146 -0.3103224 -0.59394866 -0.91110176 -0.14462942 0.27966455 -0.22518085 -0.34730446 -0.48734972 0.33132178 -0.2767511 -0.0714026 -0.031785794 -0.5774688 0.0072278227 0.34057754 -0.06646157 -0.8788765 0.32340857 -0.18702771 -0.014543423 0.00664237 0.16068764 0.08262963 0.65062165 0.08444263 -0.00829906 -0.3099335 -0.59355277 -0.081375204 0.78577477 -0.292667 -0.013721482 -0.8223463 0.11640843 0.30720958 0.31137687 0.049271446 0.06954046 0.96421194 0.1450878 -0.3825436 -0.014207078 0.6124459 -0.48372224 0.020000782 0.30186924 -0.62501407 0.053466525 0.39974797 0.27326792 0.14659429 1.1980201 0.27939242 -0.77322274 -0.16899648 0.4931816 0.20267503 0.07947598
62fb5b921713a98f61a3a71c2c7a301a7209cbbf 0.35189202 -0.3091838 -0.7167868 -0.29113758 0.43779084 0.7957354 -0.07565314 0.3272752 -0.6614597 0.18995474 -0.33166716 -0.05834503 -0.57288843 -0.4423298 -0.07639455 0.35296097 -0.6125126 0.80327076 0.20285943 0.14375395 0.4411041 0.117936976 -0.5969425 0.035927203 -0.14056823 0.28907213 -0.030502776 -0.14894333 0.30700588 -0.16642387 -0.47721285 -0.077832796 0.1423986 -0.42647603 -0.15456441 -0.36874998 -0.29367998 -0.68491316 0.22727898 -0.3088889 0.1597412 0.57539386 -0.008419064 0.35043767 0.3810442 -0.12724881 0.190555 0.17737116 0.16985892 -0.4269224 -0.026392382 0.80357903 0.0073201307 0.22150517 0.035691746 0.22694558 0.23786744 -0.26269472 -0.0011844952 -0.48242408 -0.5649973 0.07046214 0.36628222 -0.25289956
1138267105b316a0df8a78a7ea5b835485a5403b 0.2633533 -0.18042731 -0.1385863 -0.050453912 -0.13445112 -0.40061656 -0.00015324075 -0.18210179 0.11613142 -0.012099095 0.29357696 -0.116265304 -0.31235662 -0.0245011 -0.14933352 -0.37484956 -0.6152416 0.13984087 0.31061894 0.49766415 0.2486352 0.4984952 0.07588164 0.13390107 -0.40606794 -0.02445316 -0.32303032 0.3412548 -0.41770893 -0.2500261 0.20494881 0.04074493 -0.07756474 -0.12043986 -0.16595198 0.31321672 0.21460277 0.11874873 -0.38335943 0.15868004 0.32795617 0.6540081 0.072559446 -0.12582985 0.64152586 0.20623463 0.23759893 -0.47966072 0.72159255 -0.0797729 0.26164052 0.20732215 -0.1081611 0.38970804 -0.035387218 0.53251666 0.03188482 -0.042580217 0.16923833 0.20118313 -0.58420044 0.31177264 -0.023473091 -0.20347655
